#ifndef MODEL_WEIGHTS_FLOAT_H
#define MODEL_WEIGHTS_FLOAT_H

// Auto-generated DS-CNN float weights for ManualDSCNN (ESP32-S3)
// Extraction order (name, shape):
//   conv2d_1_w : (3, 3, 1, 16)
//   batch_normalization_7_gamma : (16,)
//   batch_normalization_7_beta : (16,)
//   batch_normalization_7_mean : (16,)
//   batch_normalization_7_var : (16,)
//   batch_normalization_8_gamma : (16,)
//   batch_normalization_8_beta : (16,)
//   batch_normalization_8_mean : (16,)
//   batch_normalization_8_var : (16,)
//   b1_pw_w : (1, 1, 16, 24)
//   batch_normalization_9_gamma : (24,)
//   batch_normalization_9_beta : (24,)
//   batch_normalization_9_mean : (24,)
//   batch_normalization_9_var : (24,)
//   batch_normalization_10_gamma : (24,)
//   batch_normalization_10_beta : (24,)
//   batch_normalization_10_mean : (24,)
//   batch_normalization_10_var : (24,)
//   b2_pw_w : (1, 1, 24, 32)
//   batch_normalization_11_gamma : (32,)
//   batch_normalization_11_beta : (32,)
//   batch_normalization_11_mean : (32,)
//   batch_normalization_11_var : (32,)
//   batch_normalization_12_gamma : (32,)
//   batch_normalization_12_beta : (32,)
//   batch_normalization_12_mean : (32,)
//   batch_normalization_12_var : (32,)
//   b3_pw_w : (1, 1, 32, 48)
//   batch_normalization_13_gamma : (48,)
//   batch_normalization_13_beta : (48,)
//   batch_normalization_13_mean : (48,)
//   batch_normalization_13_var : (48,)
//   dense_1_w : (48, 3)
//   dense_1_b : (3,)

// conv2d_1_w shape: [3, 3, 1, 16]
const float conv2d_1_w[] = { 1.00335322e-01f, 9.57867131e-02f, -7.17111453e-02f, 2.18748942e-01f, -2.13983715e-01f, 1.76951513e-02f, 2.00806379e-01f, -1.59964085e-01f, -5.88502176e-02f, 3.01331747e-02f, -7.14505985e-02f, 1.22828722e-01f, 1.48007423e-01f, -8.46852511e-02f, 8.39138031e-02f, 7.43279159e-02f, -1.95103049e-01f, -1.50678769e-01f, -1.05654031e-01f, -2.40678310e-01f, -2.07512677e-01f, 2.62069851e-01f, 1.88474745e-01f, -9.38382968e-02f, 1.25798360e-01f, -1.74001053e-01f, 6.11085892e-02f, -4.47636992e-02f, 1.44532874e-01f, -2.16706008e-01f, -1.72525436e-01f, 1.93329766e-01f, -2.22819790e-01f, -2.09104624e-02f, -2.52425633e-02f, 1.33031353e-01f, 8.10810104e-02f, -1.31469563e-01f, -1.13352664e-01f, 1.46950826e-01f, -2.78534502e-01f, 7.66031072e-02f, 5.36663458e-02f, -3.24288979e-02f, 2.03885123e-01f, 6.70994148e-02f, 8.74485262e-03f, -1.25915110e-01f, -1.42820328e-01f, 1.08494796e-02f, 7.74815679e-02f, 8.01728293e-02f, -1.28078684e-01f, -1.35385901e-01f, 1.21670164e-01f, 1.54625148e-01f, -3.58174331e-02f, -5.35124615e-02f, -8.65677744e-02f, -1.07831381e-01f, -4.49697189e-02f, 6.39425293e-02f, -9.46732238e-02f, 9.85611901e-02f, 1.26705123e-02f, 9.03267264e-02f, -1.77215055e-01f, -8.42661783e-02f, 1.37799129e-01f, 6.80891126e-02f, 1.24778584e-01f, 1.40935600e-01f, 1.74952179e-01f, 6.49848161e-03f, 1.02998085e-01f, -2.08181188e-01f, 1.11579888e-01f, 4.40697037e-02f, 5.15265716e-03f, -1.36484593e-01f, -1.20303720e-01f, 1.33054450e-01f, -1.00266218e-01f, 1.24732301e-01f, -8.31243098e-02f, -5.19022048e-02f, 9.70745459e-02f, 2.23749653e-01f, -4.52803262e-02f, -1.12450765e-02f, 1.76833302e-01f, 7.72191882e-02f, -4.23033610e-02f, -2.23957658e-01f, 1.42081693e-01f, -1.12695254e-01f, 9.11053792e-02f, 2.28409693e-01f, 3.56151052e-02f, -6.82860240e-02f, 2.54971713e-01f, 1.70167759e-01f, -1.77991763e-01f, -1.46139592e-01f, -5.32834902e-02f, 1.23611122e-01f, -1.22803085e-01f, -8.63532051e-02f, 1.18055336e-01f, -1.71197150e-02f, -1.21535555e-01f, 5.83921112e-02f, 1.34499535e-01f, 1.25202045e-01f, -2.20181029e-02f, -1.70654535e-01f, 1.28156915e-01f, -1.78243369e-01f, -1.10753007e-01f, -1.33146659e-01f, 1.13024257e-01f, -2.22827658e-01f, -1.55719012e-01f, 1.65583342e-01f, -9.31496024e-02f, -1.49264326e-02f, 1.92340732e-01f, -1.99628711e-01f, 2.75844783e-01f, -2.29306042e-01f, 1.63904294e-01f, 4.13976386e-02f, 8.74323174e-02f, -6.12286180e-02f, -2.13862071e-03f, -4.88006994e-02f, -4.64786105e-02f, -1.39270261e-01f, 3.55936438e-01f, -1.92540422e-01f, -3.13730121e-01f, -1.36877567e-01f, -1.07699046e-02f, 1.03752442e-01f };

// batch_normalization_7_gamma shape: [16]
const float batch_normalization_7_gamma[] = { 7.61547744e-01f, 8.96863759e-01f, 9.77778614e-01f, 1.02101791e+00f, 9.30564761e-01f, 8.54027987e-01f, 9.95151937e-01f, 1.20196581e+00f, 9.65278983e-01f, 1.17524290e+00f, 9.18951988e-01f, 7.67192185e-01f, 8.37470889e-01f, 7.98102021e-01f, 1.05927324e+00f, 8.80117238e-01f };

// batch_normalization_7_beta shape: [16]
const float batch_normalization_7_beta[] = { 8.72295275e-02f, 1.55590057e-01f, -1.20084375e-01f, -7.83028677e-02f, 1.02888614e-01f, 2.10109517e-01f, 4.35208008e-02f, 6.40494749e-02f, 8.80170316e-02f, 4.60321605e-02f, 4.60326597e-02f, 4.80945200e-01f, 1.34155780e-01f, 1.60724327e-01f, 7.48644918e-02f, 1.23636320e-01f };

// batch_normalization_7_mean shape: [16]
const float batch_normalization_7_mean[] = { -2.64823604e-02f, -1.91561615e+00f, 1.24394643e+00f, 1.37364161e+00f, 1.76085517e-01f, -1.04701340e+00f, -1.70471585e+00f, 1.18930161e+00f, -1.45910525e+00f, 1.36424041e+00f, 1.53480530e+00f, 7.52466023e-01f, -1.96505451e+00f, 1.01251090e+00f, 6.24350905e-01f, -5.76056957e-01f };

// batch_normalization_7_var shape: [16]
const float batch_normalization_7_var[] = { 3.64545655e+00f, 4.50615845e+01f, 3.89302559e+01f, 1.36062561e+02f, 9.00425339e+00f, 1.38581800e+01f, 2.54836006e+01f, 1.33724356e+01f, 9.29546051e+01f, 6.60627060e+01f, 3.87900352e+01f, 5.91340113e+00f, 3.07332249e+01f, 1.38889666e+01f, 1.04352865e+01f, 3.53706398e+01f };

// batch_normalization_8_gamma shape: [16]
const float batch_normalization_8_gamma[] = { 9.68977034e-01f, 9.36410546e-01f, 1.06010854e+00f, 1.08837819e+00f, 1.13263142e+00f, 9.42250907e-01f, 9.81107295e-01f, 1.01612294e+00f, 9.96875763e-01f, 1.02996433e+00f, 1.06746852e+00f, 1.02424002e+00f, 8.60082090e-01f, 8.54698837e-01f, 1.16313910e+00f, 1.01314008e+00f };

// batch_normalization_8_beta shape: [16]
const float batch_normalization_8_beta[] = { 8.49368274e-02f, -1.27698585e-01f, -1.31076932e-01f, 5.61470836e-02f, 4.40686010e-02f, -1.48917004e-01f, -1.62557557e-01f, 5.33046871e-02f, 1.29859701e-01f, 2.49758899e-01f, 2.52176542e-03f, 1.17648572e-01f, -1.30504400e-01f, -7.70842284e-02f, 1.45999983e-01f, 2.60586053e-01f };

// batch_normalization_8_mean shape: [16]
const float batch_normalization_8_mean[] = { 5.75988814e-02f, 3.67303267e-02f, 6.89890608e-02f, 4.08739150e-02f, 4.83124293e-02f, -1.24400854e-01f, 1.38708018e-02f, 2.08194647e-02f, -9.96397585e-02f, 2.07713787e-02f, -1.98566630e-01f, 9.46130604e-02f, 1.81804836e-01f, -6.93567023e-02f, -1.80639282e-01f, -2.67770439e-01f };

// batch_normalization_8_var shape: [16]
const float batch_normalization_8_var[] = { 2.45159417e-02f, 4.18326585e-03f, 9.69217792e-02f, 5.65558262e-02f, 1.61873072e-01f, 6.21122168e-03f, 1.17040230e-02f, 1.56621765e-02f, 2.69178469e-02f, 6.52297214e-03f, 1.86417639e-01f, 1.18465833e-01f, 1.78366099e-02f, 4.34531048e-02f, 1.32281631e-01f, 5.31364828e-02f };

// b1_pw_w shape: [1, 1, 16, 24]
const float b1_pw_w[] = { 4.32747304e-01f, -4.17423435e-02f, 7.86065031e-03f, -1.98576927e-01f, -2.91432291e-01f, 2.64602631e-01f, -2.75313199e-01f, 1.14560314e-02f, -2.77033836e-01f, -3.78109157e-01f, -1.10228166e-01f, 1.54595628e-01f, -2.24419888e-02f, 3.15483212e-01f, -8.83159712e-02f, -5.45278005e-02f, -2.19058879e-02f, 2.52348613e-02f, -2.06631705e-01f, -4.55739163e-02f, -1.40658662e-01f, 3.44808042e-01f, -3.47902596e-01f, -3.40564519e-01f, -1.95346400e-01f, 3.10658216e-02f, 2.07601801e-01f, 9.53564197e-02f, 1.38564274e-01f, -1.03465192e-01f, 3.12340587e-01f, 8.78425092e-02f, -3.51744562e-01f, -8.39507356e-02f, 4.30862367e-01f, 8.98083672e-02f, 1.34178564e-01f, 1.64612666e-01f, -7.79211968e-02f, -3.38561803e-01f, 4.75344993e-03f, 3.72418374e-01f, -2.65594989e-01f, -2.47066736e-01f, 4.42372449e-02f, 2.21760496e-02f, 5.06768236e-03f, 2.76589006e-01f, 1.36635661e-01f, 3.66725504e-01f, -4.45733875e-01f, -1.18312553e-01f, -7.77261257e-02f, 8.97971615e-02f, -1.07792243e-01f, -3.67246479e-01f, 2.73892909e-01f, -4.04577881e-01f, 1.71922669e-01f, 6.37142509e-02f, 3.63108486e-01f, 1.53168827e-01f, -4.91445661e-02f, -1.13975696e-01f, -3.06254566e-01f, -3.68366271e-01f, -4.76467729e-01f, 1.32323250e-01f, 2.48609185e-01f, -9.81709361e-02f, 1.02802843e-01f, -2.23466635e-01f, -2.05172896e-01f, -4.49098736e-01f, -2.87311107e-01f, 2.00459778e-01f, -4.08953652e-02f, 7.41079375e-02f, 3.71997684e-01f, 3.88145775e-01f, 1.13116644e-01f, 2.07590424e-02f, -1.29711300e-01f, -2.75132418e-01f, 3.98281589e-02f, 2.07636476e-01f, 8.26086774e-02f, -1.44151866e-01f, -1.54412210e-01f, 2.19291891e-03f, -3.17995429e-01f, -9.77555942e-03f, -1.50571644e-01f, -3.50892335e-01f, -9.39590558e-02f, -7.51591846e-02f, -4.01744395e-01f, 3.75935346e-01f, 1.48905367e-01f, -1.50695026e-01f, 4.13680822e-01f, -3.80541354e-01f, -3.64761889e-01f, -6.68845773e-02f, 2.20705792e-01f, 1.75772272e-02f, -3.62507731e-01f, 1.40975147e-01f, -4.20722477e-02f, -8.51703659e-02f, -3.29091921e-02f, 3.61452311e-01f, -1.26359910e-01f, -2.11567044e-01f, 5.54913543e-02f, 3.87836516e-01f, 2.12124944e-01f, 1.84713274e-01f, -3.32242936e-01f, -2.11045414e-01f, -2.79544055e-01f, 5.40404879e-02f, 1.10322289e-01f, 1.77511916e-01f, 1.82270363e-01f, -1.14465997e-01f, 1.13061249e-01f, 2.68839747e-01f, -2.16893271e-01f, -3.98196995e-01f, -5.22865402e-03f, 3.60181719e-01f, 3.35412562e-01f, 2.19637424e-01f, 2.73142815e-01f, 4.49044466e-01f, -4.63734893e-03f, -3.53820682e-01f, 1.21268071e-01f, -1.04901984e-01f, -2.21211955e-01f, 4.27442491e-01f, 1.41824976e-01f, 3.78261469e-02f, -1.33686215e-01f, 9.26962495e-02f, -7.75019675e-02f, 2.52072215e-01f, -8.07208419e-02f, 2.46158138e-01f, 1.67148739e-01f, -2.56090879e-01f, -1.26727059e-01f, -1.21475346e-02f, -1.06435172e-01f, -1.76937386e-01f, -1.65700346e-01f, 8.72152224e-02f, -2.23595574e-01f, 3.44487391e-02f, -1.39772490e-01f, -1.23025209e-01f, -4.18057591e-02f, 3.42148356e-02f, 8.07913393e-02f, 2.31036425e-01f, 4.45989892e-02f, -2.83017661e-03f, 2.34999523e-01f, -1.03823975e-01f, -5.24431728e-02f, 2.55301058e-01f, -1.33655980e-01f, 2.38255575e-01f, -1.90674722e-01f, 3.90526921e-01f, 4.04660046e-01f, -4.12914872e-01f, 1.40149683e-01f, 2.69232631e-01f, 2.94508994e-01f, -2.57221997e-01f, -4.58265185e-01f, 3.97439152e-02f, 1.33392170e-01f, 2.80671209e-01f, -3.64551544e-01f, 5.16074538e-01f, 1.47023052e-01f, 7.98486695e-02f, -1.63318053e-01f, 4.63977084e-03f, -1.83710203e-01f, -1.74750686e-01f, 3.21122408e-01f, -3.37141424e-01f, 5.80406412e-02f, 2.25130677e-01f, -1.76144093e-01f, 2.64003009e-01f, 2.89923012e-01f, -2.01613620e-01f, -1.08609572e-01f, 2.26989537e-01f, -2.88087070e-01f, 1.03908464e-01f, -7.45939836e-02f, 3.16654682e-01f, -2.69948930e-01f, -1.74475357e-01f, 9.93696451e-02f, -9.61208344e-02f, -3.61623615e-01f, -3.00702184e-01f, 3.35901111e-01f, -3.19620818e-01f, -1.40001312e-01f, -1.80546567e-02f, -1.32260099e-01f, 4.59573269e-02f, -2.18188852e-01f, 2.53491580e-01f, 8.02184865e-02f, 1.72126144e-01f, -2.79869914e-01f, 1.82872459e-01f, -2.70455778e-01f, 3.73362452e-01f, 1.41471669e-01f, 3.74544322e-01f, 4.99657467e-02f, 3.15981746e-01f, -1.64585505e-02f, -4.02191818e-01f, -4.87631828e-01f, 3.12433153e-01f, 1.26621246e-01f, -3.07966173e-01f, 2.58779138e-01f, 2.62028009e-01f, 1.57993343e-02f, 3.16563934e-01f, -2.27400601e-01f, 1.41664729e-01f, 1.68374762e-01f, -2.34787300e-01f, -2.77507063e-02f, 1.60706073e-01f, 5.21826148e-02f, 2.57734120e-01f, 2.64590353e-01f, -2.44258773e-02f, -3.74758631e-01f, -6.38437629e-01f, -5.22551417e-01f, -6.42277971e-02f, -2.32056841e-01f, -3.17249835e-01f, -6.47936314e-02f, -4.19691712e-01f, 1.89524703e-02f, -1.09586874e-02f, 6.13918230e-02f, -2.07021594e-01f, -8.63756984e-02f, 6.58361390e-02f, -1.77528888e-01f, 3.09056163e-01f, -1.79164559e-01f, -4.77974117e-01f, -9.37841367e-03f, -3.39144677e-01f, -2.58251689e-02f, 3.31282377e-01f, -5.67736924e-01f, -2.05415249e-01f, 2.44557589e-01f, -2.32875958e-01f, 1.12376809e-01f, 8.03654715e-02f, -4.13722079e-03f, -9.88654792e-02f, 2.36315057e-02f, -5.34013193e-03f, 2.49838158e-02f, -1.70811236e-01f, 3.61436129e-01f, 3.61929238e-01f, 2.51747400e-01f, -1.73714414e-01f, -1.00006774e-01f, 2.18439266e-01f, 5.53204753e-02f, -1.03980154e-01f, -2.49564633e-01f, 1.15078554e-01f, 3.95322561e-01f, 4.91982698e-02f, -2.16592237e-01f, 1.21856108e-01f, 3.93511862e-01f, -7.25047514e-02f, 2.19311893e-01f, 1.80339441e-02f, 8.22460726e-02f, -9.95301008e-02f, 2.37912297e-01f, -2.06328839e-01f, -4.20348555e-01f, -1.71242375e-02f, 2.43407324e-01f, 3.90617400e-02f, 1.99784398e-01f, 9.34833568e-03f, 3.83022487e-01f, -3.12018812e-01f, 4.15202796e-01f, -1.64447829e-01f, 2.54477888e-01f, 8.54335949e-02f, 1.71679053e-02f, 1.63684085e-01f, 1.11503705e-01f, -4.78468835e-01f, 1.29290491e-01f, -2.53762692e-01f, -4.42678720e-01f, 2.62969881e-02f, -2.03517735e-01f, -5.92129715e-02f, -4.16847058e-02f, -3.59344900e-01f, 1.57573983e-01f, 1.54076412e-01f, -4.05780494e-01f, 3.61972712e-02f, -2.28719577e-01f, -4.59922224e-01f, -4.60075140e-01f, 4.44012694e-02f, -3.58503550e-01f, -2.57818937e-01f, 1.91298023e-01f, -3.79806012e-01f, -4.45305966e-02f, -2.78531134e-01f, 4.84772138e-02f, -4.92093116e-01f, 2.89007485e-01f, 1.52841359e-01f, -1.40676364e-01f, -2.26597965e-01f, -2.57302821e-01f, -7.87273943e-02f, 1.47485659e-01f, 1.43448383e-01f, -2.97392756e-01f, -2.06495777e-01f, -7.25553110e-02f, 4.45640348e-02f, 3.37463111e-01f, 3.12008590e-01f, 1.81955218e-01f, -5.34929633e-02f, 2.34446779e-01f, 1.99664369e-01f, -2.48180673e-01f, -2.60669887e-02f, 1.90922275e-01f, -3.11218888e-01f, -3.17743242e-01f, 3.01763415e-01f, 1.95494324e-01f, -8.41392130e-02f, -7.06342235e-02f, 4.09307390e-01f, 2.27558166e-01f, -1.10775232e-01f, -1.41761869e-01f, 3.03206354e-01f, -2.76290715e-01f, -8.38940963e-03f, -1.89694732e-01f, -4.03821409e-01f };

// batch_normalization_9_gamma shape: [24]
const float batch_normalization_9_gamma[] = { 1.04716623e+00f, 1.11202097e+00f, 1.02149260e+00f, 1.12444067e+00f, 8.87272596e-01f, 1.03465688e+00f, 9.73710895e-01f, 1.11902559e+00f, 8.92208457e-01f, 8.57359707e-01f, 8.98409188e-01f, 1.16338706e+00f, 1.15155876e+00f, 1.24121642e+00f, 9.11329210e-01f, 1.04628742e+00f, 1.00469744e+00f, 1.10192895e+00f, 9.66292799e-01f, 9.64692533e-01f, 9.56324160e-01f, 7.17322528e-01f, 9.73792195e-01f, 9.99724090e-01f };

// batch_normalization_9_beta shape: [24]
const float batch_normalization_9_beta[] = { -1.25726853e-02f, 8.57915543e-03f, 7.59410039e-02f, -7.47837052e-02f, -1.13654159e-01f, 4.54085730e-02f, -1.69937406e-02f, 1.30019739e-01f, -6.43877462e-02f, 2.09542587e-01f, 2.16262713e-02f, -1.11327665e-02f, -2.40300745e-02f, -4.16223221e-02f, -2.09928434e-02f, -6.83242157e-02f, 6.16761632e-02f, -2.09447984e-02f, 2.04738423e-01f, -5.04396707e-02f, 1.10302500e-01f, -2.26460323e-01f, 3.73426639e-02f, 9.49439332e-02f };

// batch_normalization_9_mean shape: [24]
const float batch_normalization_9_mean[] = { -7.48040304e-02f, 1.81438010e-02f, -2.24953622e-01f, 1.06842779e-01f, 1.23134386e-02f, -7.95421451e-02f, -1.27472639e-01f, 5.22974283e-02f, 2.25335598e-01f, -4.99220312e-01f, -4.26882416e-01f, 1.16331115e-01f, 4.55644459e-01f, 4.49133255e-02f, -4.44258690e-01f, 3.97926420e-01f, -4.00975108e-01f, -5.74034154e-01f, -4.47697192e-01f, 1.83823481e-01f, -4.11051303e-01f, -1.45666614e-01f, 6.86774915e-03f, -3.50171268e-01f };

// batch_normalization_9_var shape: [24]
const float batch_normalization_9_var[] = { 3.28664571e-01f, 1.71105549e-01f, 8.24624777e-01f, 2.51528442e-01f, 6.15623951e-01f, 6.60959363e-01f, 2.57402390e-01f, 2.97512233e-01f, 2.45510414e-01f, 6.66608632e-01f, 3.78732741e-01f, 4.15666729e-01f, 5.55916786e-01f, 5.84722698e-01f, 1.62623316e-01f, 3.50390762e-01f, 1.49486959e-01f, 2.78227776e-01f, 2.08034253e+00f, 6.05950892e-01f, 1.47681206e-01f, 2.29183286e-01f, 2.71664917e-01f, 3.87157828e-01f };

// batch_normalization_10_gamma shape: [24]
const float batch_normalization_10_gamma[] = { 8.80164087e-01f, 1.06862247e+00f, 1.05016065e+00f, 1.08100855e+00f, 9.29584384e-01f, 8.98014724e-01f, 9.71145868e-01f, 1.01475990e+00f, 8.86892736e-01f, 1.00366807e+00f, 8.99628758e-01f, 9.28130329e-01f, 8.93958628e-01f, 1.07105112e+00f, 9.36554074e-01f, 1.04306996e+00f, 9.67771232e-01f, 1.10125542e+00f, 1.22718465e+00f, 1.04599679e+00f, 1.16451812e+00f, 1.08695555e+00f, 9.13292825e-01f, 1.03621697e+00f };

// batch_normalization_10_beta shape: [24]
const float batch_normalization_10_beta[] = { -1.01929650e-01f, -6.48466721e-02f, 9.47262347e-02f, 2.15729147e-01f, -1.12602919e-01f, 1.14171736e-01f, -2.90211439e-01f, 9.38915089e-02f, -8.62015993e-04f, -5.10146655e-02f, -1.82680991e-02f, -1.38138667e-01f, -5.97446896e-02f, -6.50549084e-02f, -7.55270272e-02f, -6.01772591e-02f, -2.24123210e-01f, -1.66509092e-01f, -1.42008290e-01f, 2.65653413e-02f, 8.41618702e-03f, -2.81294435e-02f, 5.13943261e-04f, 5.29995039e-02f };

// batch_normalization_10_mean shape: [24]
const float batch_normalization_10_mean[] = { -8.04087892e-02f, -6.84805098e-04f, 3.02871037e-02f, -3.75129357e-02f, 8.58509392e-02f, -8.47007632e-02f, -4.41305265e-02f, 1.23318270e-01f, -8.61281827e-02f, -1.59925535e-01f, -6.74275383e-02f, 1.22900411e-01f, 6.82419762e-02f, 3.45304236e-02f, 1.33710355e-02f, 2.00377554e-02f, -6.36416078e-02f, -1.17457449e-01f, -4.37827222e-02f, 7.47383982e-02f, -1.29093021e-01f, 1.55785903e-02f, -8.27598618e-04f, -7.57152913e-04f };

// batch_normalization_10_var shape: [24]
const float batch_normalization_10_var[] = { 5.72398566e-02f, 2.89021693e-02f, 7.40560517e-03f, 6.65501207e-02f, 6.37233704e-02f, 1.07198216e-01f, 8.16295203e-03f, 2.64530361e-01f, 3.72385494e-02f, 2.86588483e-02f, 1.07108140e-02f, 8.63604024e-02f, 1.31360292e-01f, 2.41617952e-02f, 1.15237609e-02f, 2.48312894e-02f, 1.68737359e-02f, 1.27106383e-02f, 6.92186737e-03f, 7.97054246e-02f, 1.00895502e-01f, 7.27314735e-03f, 6.02559298e-02f, 3.08916345e-02f };

// b2_pw_w shape: [1, 1, 24, 32]
const float b2_pw_w[] = { 3.16023409e-01f, -2.04686701e-01f, 2.40031004e-01f, -1.67120993e-01f, 1.18462451e-01f, -1.81317657e-01f, -6.08531870e-02f, -4.79170084e-01f, 2.90735573e-01f, -1.48432866e-01f, 1.21760726e-01f, 9.16622207e-02f, -4.54417728e-02f, 9.49302018e-02f, -3.38339545e-02f, -1.59354419e-01f, 4.57922816e-02f, -2.52106875e-01f, -1.52184099e-01f, 1.83968350e-01f, 7.36106783e-02f, 9.76113081e-02f, 8.50828886e-02f, -3.00692081e-01f, -2.34192945e-02f, -7.12130889e-02f, -6.64869621e-02f, 6.70811981e-02f, 6.25990033e-02f, 2.35765979e-01f, -7.61069283e-02f, -2.78869690e-03f, 1.79306325e-02f, 1.06494695e-01f, 4.91454564e-02f, -1.40035570e-01f, 1.06348917e-01f, 1.88125476e-01f, -5.34610748e-01f, 1.85514033e-01f, -5.64093888e-03f, 1.66787371e-01f, -3.27564299e-01f, 4.69067739e-03f, -2.47225970e-01f, 4.78538722e-01f, -1.42804220e-01f, -3.19834948e-01f, -2.08444864e-01f, 1.99406013e-01f, -1.73424304e-01f, 2.27043554e-01f, -5.09818941e-02f, 1.56981632e-01f, -2.39243969e-01f, -2.57502466e-01f, -3.32772024e-02f, -2.54027754e-01f, -2.37474754e-01f, 1.01680040e-01f, -2.30582714e-01f, 2.29978219e-01f, -7.00395703e-02f, -3.45319122e-01f, 1.97564512e-01f, 2.66338944e-01f, -1.85201958e-01f, 9.14924964e-02f, 6.64774403e-02f, -3.91741768e-02f, -6.20639287e-02f, -2.90377140e-01f, 1.86269030e-01f, 1.28954872e-01f, 5.17110564e-02f, 6.14022799e-02f, -2.10366428e-01f, -4.73346531e-01f, -1.35196313e-01f, -2.80389994e-01f, -2.57093390e-03f, 1.58969045e-01f, -1.39074728e-01f, -7.33258486e-01f, -2.08214298e-03f, -8.71794149e-02f, -8.74138549e-02f, 2.35450789e-01f, -5.38389524e-03f, 1.83587417e-01f, 1.85955226e-01f, 1.21358130e-02f, 5.61831184e-02f, -7.27373734e-02f, -4.13220763e-01f, -7.73070827e-02f, 2.41387054e-01f, 4.62427735e-02f, -2.26495340e-01f, 9.39052552e-02f, -9.46030319e-02f, -1.31076247e-01f, -2.16081724e-01f, 1.78704083e-01f, -7.35414922e-02f, -2.64732569e-01f, 1.62254408e-01f, 9.52795967e-02f, -1.17149137e-01f, -2.69046966e-02f, -1.16561167e-01f, 1.80537641e-01f, -1.90141112e-01f, -2.17176393e-01f, -4.67530906e-01f, -5.37608415e-02f, 1.11631639e-01f, 7.42372572e-02f, -2.12843001e-01f, -1.61207229e-01f, 8.81566405e-02f, -9.34942961e-02f, -2.42679879e-01f, 1.73826903e-01f, -7.56117702e-02f, -4.33739007e-01f, -1.30367383e-01f, 1.48046434e-01f, 2.18849722e-02f, 4.42934670e-02f, -3.13996762e-01f, 2.95303822e-01f, -8.36496726e-02f, 1.11148663e-01f, -3.84967625e-01f, -5.47078811e-02f, -3.95366959e-02f, -6.62749112e-02f, 7.85390288e-02f, -2.34020606e-01f, 1.44659087e-01f, -6.49904236e-02f, -3.48767117e-02f, 2.74790913e-01f, -2.43059307e-01f, -1.56156018e-01f, -3.82377774e-01f, 9.43302587e-02f, 1.69654131e-01f, 3.54508311e-01f, -1.26890197e-01f, -1.21401288e-01f, 1.92424849e-01f, 2.07888484e-01f, -3.15122157e-01f, -1.74249530e-01f, -2.40216941e-01f, -7.39005655e-02f, 2.11367741e-01f, -2.70336807e-01f, -1.20459348e-01f, 3.60433161e-02f, 2.36748874e-01f, 8.91740546e-02f, 2.10735220e-02f, 8.76983404e-02f, -7.96734076e-03f, -2.60369450e-01f, 6.77044243e-02f, 8.23326558e-02f, -2.30839103e-01f, 1.75195411e-01f, 1.34648249e-01f, -1.65323928e-01f, 1.15821414e-01f, 1.39486924e-01f, -1.99981302e-01f, 1.89130485e-01f, -2.96742886e-01f, -3.84558231e-01f, -2.25390851e-01f, 1.33461386e-01f, -7.13545531e-02f, 2.49244735e-01f, -1.66860074e-01f, -1.45223469e-01f, -1.50875360e-01f, -1.03958510e-01f, 3.65868598e-01f, -2.87268877e-01f, -2.12135628e-01f, -1.10367373e-01f, -8.06759074e-02f, 9.29743648e-02f, 1.37152210e-01f, -2.35486582e-01f, -2.66881913e-01f, -6.96942270e-01f, -1.42712086e-01f, -2.87010163e-01f, 3.90820295e-01f, 2.94897377e-01f, -1.91519529e-01f, 4.68856841e-02f, -4.16553766e-02f, -3.40136617e-01f, 1.81536898e-01f, 1.37736857e-01f, -2.27707207e-01f, -1.91503689e-01f, 1.41167240e-02f, 1.40794935e-02f, -1.63860649e-01f, 7.50033930e-02f, -1.28485292e-01f, 5.36084734e-02f, -6.96858764e-03f, 2.80227125e-01f, 7.91985095e-02f, 5.84763169e-01f, 7.71471411e-02f, -1.80958491e-02f, 2.06846476e-01f, -2.31604606e-01f, 2.91308582e-01f, -1.94666222e-01f, 3.02449673e-01f, 1.22939944e-01f, -7.60130137e-02f, 1.32250205e-01f, 2.70440608e-01f, -2.30066299e-01f, -1.60920382e-01f, -3.00174188e-02f, 3.69504429e-02f, -1.63431987e-02f, -5.42314537e-02f, 2.47858271e-01f, -2.07024440e-01f, -2.83071756e-01f, -5.98430336e-02f, -9.27975681e-03f, -4.72368717e-01f, -1.04797050e-01f, 1.39459193e-01f, 6.55832812e-02f, -2.68788021e-02f, 3.84217836e-02f, 7.58094788e-02f, -3.24857503e-01f, 7.17670098e-02f, 1.24307357e-01f, 2.98574448e-01f, -1.05404280e-01f, 3.66071127e-02f, -1.21461660e-01f, -9.86100510e-02f, 1.38766930e-01f, -1.32161170e-01f, 4.28650826e-02f, 6.62726164e-02f, 1.79054469e-01f, 1.38497397e-01f, 3.72564122e-02f, 8.13636649e-03f, 2.27917895e-01f, 1.51880622e-01f, -3.70328054e-02f, 2.26478860e-01f, 5.58202304e-02f, 1.19127862e-01f, -1.99179649e-02f, -2.73135155e-01f, -2.55584061e-01f, -6.82880804e-02f, -1.97441116e-01f, -2.73420423e-01f, 1.19538613e-01f, 3.77019703e-01f, 1.42426595e-01f, -3.18039745e-01f, 8.99317786e-02f, -6.90720752e-02f, -2.72475779e-01f, -2.37402141e-01f, -2.43440140e-02f, 1.17092006e-01f, 3.24040055e-02f, 8.49554911e-02f, -1.31276906e-01f, 2.81418979e-01f, -2.64718905e-02f, 3.90801907e-01f, -6.75313249e-02f, 2.24633411e-01f, -2.31355876e-01f, 1.00854084e-01f, -2.87799209e-01f, 5.11741005e-02f, -6.61597103e-02f, -5.74356876e-02f, 9.66429617e-03f, -1.53603852e-01f, -1.49936527e-01f, -5.28559135e-03f, -2.39486545e-01f, -2.42110685e-01f, 5.65823019e-02f, 4.30236340e-01f, 2.57507473e-01f, 2.98568875e-01f, 2.57961392e-01f, -2.43295878e-01f, -9.71838925e-03f, 1.37803927e-01f, -1.62960649e-01f, 3.19700390e-02f, -2.55421311e-01f, -2.35367805e-01f, -4.00713943e-02f, 8.59226733e-02f, 1.13973454e-01f, -2.76478052e-01f, 4.52039719e-01f, 9.83019248e-02f, 2.58513838e-01f, -6.54527023e-02f, -1.47178575e-01f, 2.76364118e-01f, -1.75462618e-01f, 1.49383947e-01f, 1.39360651e-01f, -6.57522529e-02f, 1.94418281e-01f, -3.11950445e-01f, -2.13465750e-01f, 1.97895423e-01f, 3.75254363e-01f, -9.33289900e-02f, 3.36705953e-01f, 1.27749011e-01f, 2.00573877e-01f, 1.17162459e-01f, -2.03107268e-01f, 3.33548784e-01f, -1.28303513e-01f, 7.18372315e-02f, 1.50791869e-01f, 5.93268648e-02f, -2.83779856e-02f, 2.05556691e-01f, -2.39321068e-02f, 2.25466818e-01f, 1.69504970e-01f, -2.36004755e-01f, 1.50806293e-01f, -2.59197317e-02f, 1.59241185e-01f, -1.07585162e-01f, 4.57539782e-02f, 4.74141799e-02f, -4.89510521e-02f, -2.61076093e-01f, 2.27691866e-02f, -1.04565263e-01f, -1.17803566e-01f, -1.42067909e-01f, -5.42254653e-03f, 1.24064043e-01f, 1.66594669e-01f, -1.20403700e-01f, -3.38049144e-01f, -3.26760858e-02f, 8.97789896e-02f, -3.55887443e-01f, 2.53616571e-01f, 4.15143045e-03f, 1.75551012e-01f, 2.18244240e-01f, -8.78144987e-03f, -7.79242367e-02f, 2.07294494e-01f, 1.01931550e-01f, 1.31553829e-01f, 2.50206627e-02f, -2.13042557e-01f, -2.11184084e-01f, -2.23878454e-02f, 1.05102442e-01f, 1.25361964e-01f, -1.47654444e-01f, 2.31879041e-01f, 2.21083045e-01f, -1.60302952e-01f, -1.98591221e-02f, -6.97770640e-02f, 9.35463905e-02f, -8.94290134e-02f, -1.96924061e-01f, 2.52474099e-01f, 2.02921443e-02f, -3.37348908e-01f, 1.31411433e-01f, 5.52303866e-02f, 2.63033062e-01f, 2.27170631e-01f, -2.06910193e-01f, 6.24897070e-02f, 1.26163706e-01f, 1.85539395e-01f, -3.86829048e-01f, 3.81519273e-02f, -3.64007980e-01f, 9.89827886e-02f, 3.75730060e-02f, 5.04701678e-03f, -1.85335353e-01f, 7.19361827e-02f, -1.71926796e-01f, -2.64623433e-01f, 2.79535174e-01f, 2.40501896e-01f, 2.34031722e-01f, -1.11517116e-01f, 9.30564553e-02f, 7.44850934e-02f, -3.19125086e-01f, 1.51315466e-01f, 1.50329754e-01f, -2.42185757e-01f, 2.12164328e-01f, -2.56662995e-01f, -1.16916820e-02f, -2.68426705e-02f, 7.60359019e-02f, 1.22188680e-01f, 8.74549598e-02f, -1.65466592e-01f, -3.73718619e-01f, 6.31333664e-02f, 7.27519244e-02f, -2.67587621e-02f, -2.49987558e-01f, 3.40672806e-02f, 2.35299677e-01f, 2.47242168e-01f, -3.01955827e-02f, -7.83129930e-02f, -2.26028398e-01f, -2.44744822e-01f, -1.13434389e-01f, -7.43622258e-02f, -2.59315260e-02f, 3.15400362e-01f, -2.54559398e-01f, 2.24292189e-01f, -2.30456904e-01f, 1.47574380e-01f, -1.47459939e-01f, 7.02570006e-02f, 2.50038892e-01f, 1.67772844e-01f, -2.20047548e-01f, 1.84534833e-01f, -2.97864694e-02f, -1.30563244e-01f, -1.52833790e-01f, 1.83061838e-01f, 1.06532488e-03f, -6.75704777e-02f, 2.96552539e-01f, -3.67696106e-01f, -1.51424706e-01f, 1.21252060e-01f, -9.55074131e-02f, 4.12266329e-02f, -4.72188771e-01f, 3.43990438e-02f, 8.49807728e-03f, -2.66397923e-01f, 7.49749914e-02f, -3.86491209e-01f, -1.21744633e-01f, 9.52494070e-02f, -2.79113818e-02f, -4.13720421e-02f, -3.94606411e-01f, 1.50341287e-01f, -2.54454076e-01f, 1.19853497e-01f, 2.08106726e-01f, -1.94124728e-01f, -2.66650498e-01f, -2.96795338e-01f, 3.20323743e-02f, 2.17317477e-01f, 4.32524472e-01f, 1.22930177e-01f, -1.98259592e-01f, 4.49310280e-02f, -7.19471723e-02f, -2.00750709e-01f, -1.24855347e-01f, -1.47868544e-01f, 1.24248125e-01f, 4.19079572e-01f, -3.23143393e-01f, 4.66744751e-02f, 2.31041741e-02f, -6.32335804e-03f, 8.42111409e-02f, -3.29007864e-01f, -1.39545068e-01f, 1.37210906e-01f, 2.71192379e-02f, 2.51696855e-01f, -7.87386373e-02f, 3.43224585e-01f, -3.86857718e-01f, -3.45583588e-01f, -2.66926795e-01f, -4.15980257e-02f, -3.45475525e-01f, -4.83558774e-02f, -8.54523703e-02f, -1.98540792e-01f, -1.59078732e-01f, 1.97042763e-01f, -2.75897622e-01f, -1.40167270e-02f, -2.18937457e-01f, -1.54299945e-01f, 1.75183311e-01f, 9.85061303e-02f, -3.15650314e-01f, -2.73427963e-01f, -2.17001155e-01f, -3.58678132e-01f, -1.70339137e-01f, 3.19891870e-01f, 3.11417639e-01f, -5.36179692e-02f, 1.92157388e-01f, -2.60040075e-01f, 2.63209850e-01f, 7.87857398e-02f, 9.64810178e-02f, -4.00566429e-01f, -2.14658156e-02f, -1.46989405e-01f, -3.20712924e-02f, -1.25596777e-01f, -2.86296815e-01f, -4.45772320e-01f, 6.11476451e-02f, 3.13396454e-01f, -1.18015870e-01f, 1.04486935e-01f, -2.07818553e-01f, -1.22783013e-01f, -1.07790254e-01f, -1.48155659e-01f, -2.58046687e-01f, -1.31845236e-01f, 3.59761447e-01f, -7.56218135e-02f, -8.97857696e-02f, 8.89767334e-02f, -3.60483617e-01f, -8.39842558e-02f, -1.58112377e-01f, -1.17844768e-01f, 6.85460791e-02f, -6.22963309e-02f, 3.58976685e-02f, -6.59114569e-02f, -3.43100503e-02f, -1.38269827e-01f, -1.53115794e-01f, 2.36548364e-01f, -3.10850352e-01f, 3.87995914e-02f, 1.32922545e-01f, 1.88275784e-01f, -5.92370816e-02f, 3.38201493e-01f, -4.49146420e-01f, 1.32532522e-01f, 6.59834966e-02f, -9.91340876e-02f, -1.00247599e-01f, -1.62301913e-01f, 8.50240439e-02f, -2.09806790e-03f, -1.09661423e-01f, 2.26363763e-01f, 2.67710149e-01f, -2.69666880e-01f, -2.46862516e-01f, -6.93757012e-02f, -1.84798971e-01f, -1.02094166e-01f, 1.69294074e-01f, 2.08203271e-01f, -3.17577541e-01f, 1.09344892e-01f, 3.40488881e-01f, 3.15225512e-01f, -1.91876620e-01f, -9.37315673e-02f, -7.04620183e-02f, 1.13849923e-01f, 1.74735207e-02f, 2.34006658e-01f, -5.95176555e-02f, 3.48860085e-01f, 1.52226254e-01f, 2.34622713e-02f, 3.39568332e-02f, 2.71709681e-01f, 4.57571968e-02f, 3.10551345e-01f, -3.23420316e-02f, 1.74665958e-01f, 9.46725309e-02f, -3.18397701e-01f, -2.56799668e-01f, 2.97188871e-02f, 2.51685560e-01f, 1.88240826e-01f, 1.55342057e-01f, -2.14816958e-01f, -1.16620056e-01f, 1.95994511e-01f, -1.35799021e-01f, -4.44752902e-01f, 7.13932961e-02f, -1.10777602e-01f, -1.88570678e-01f, 7.78704360e-02f, -3.72939885e-01f, 3.00167978e-01f, -5.12813747e-01f, -5.80055416e-02f, 3.27341646e-01f, -2.02222206e-02f, -1.90682262e-02f, -1.25277657e-02f, 1.01857170e-01f, 6.99385181e-02f, 2.00769842e-01f, -2.33616218e-01f, 1.21196084e-01f, -2.51698680e-03f, 2.45907530e-02f, 7.39252642e-02f, -1.51253134e-01f, 2.65149474e-01f, -2.05595374e-01f, -1.18450686e-01f, 1.51821718e-01f, 3.08690429e-01f, 1.08643308e-01f, -1.96081251e-01f, 4.03649539e-01f, 1.26691367e-02f, -2.09868893e-01f, -3.63322049e-01f, 2.03711502e-02f, -1.49708569e-01f, 1.06185369e-01f, 1.25780672e-01f, -1.37289020e-03f, 9.58330631e-02f, 2.48183250e-01f, 1.97335348e-01f, 1.31203398e-01f, 3.82889174e-02f, -5.62126152e-02f, 1.39470503e-01f, -3.20511125e-03f, -4.33256198e-03f, 2.83914208e-01f, -7.40406057e-03f, -1.81822181e-01f, -2.57778943e-01f, -2.15835825e-01f, -1.85289532e-01f, -2.76954383e-01f, 1.99228168e-01f, -3.36525202e-01f, -2.75267959e-01f, 1.71999931e-02f, -1.71985209e-01f, -4.96360362e-01f, 7.01115206e-02f, 9.19919927e-03f, -6.47232234e-02f, -9.46189836e-02f, -3.24138165e-01f, 7.40303621e-02f, -3.05248827e-01f, -1.52572304e-01f, 1.32305045e-02f, 2.56451368e-02f, -1.76272839e-01f, -1.43117815e-01f, 3.60011071e-01f, 8.36219341e-02f, -1.84612587e-01f, 4.84649837e-02f, -6.54843152e-02f, 2.04609454e-01f, 2.22840264e-01f, 9.24065989e-03f, 2.12361395e-01f, -2.73295015e-01f, 2.33178481e-01f, -2.13539433e-02f, 1.19108357e-01f, 1.39640376e-01f, 2.44441271e-01f, -4.35097694e-01f, 2.34317154e-01f, 4.15459387e-02f, 8.86957999e-03f, 1.16207033e-01f, 9.18878764e-02f, 2.15808451e-02f, 2.73196459e-01f, 2.77319878e-01f, 6.96801171e-02f, 1.55168340e-01f, -3.21520954e-01f, -4.03470635e-01f, -1.49950147e-01f, -3.18832844e-01f, 1.61282539e-01f, 9.49754491e-02f, 7.23124593e-02f, -6.92361547e-03f, 1.04190007e-01f, -2.16536909e-01f, 3.33925277e-01f, -3.17907006e-01f, 1.64738253e-01f, -2.32809149e-02f, 4.06615645e-01f, -9.09599587e-02f, 2.11861745e-01f, -1.16531536e-01f, 1.18018091e-01f, 1.72198549e-01f, 1.50312185e-01f, -8.70787799e-02f, 9.86006930e-02f, 2.81755030e-02f, -8.67073834e-02f, -1.10196345e-03f, -2.23657638e-01f, 3.02966803e-01f, 1.77756831e-01f, -2.79888242e-01f, -3.37556154e-01f, 3.29848900e-02f, -3.64637300e-02f, -4.21175450e-01f, 6.89544901e-02f };

// batch_normalization_11_gamma shape: [32]
const float batch_normalization_11_gamma[] = { 8.42767000e-01f, 8.62457275e-01f, 9.18617249e-01f, 9.68038380e-01f, 6.37643933e-01f, 1.00487053e+00f, 1.06870997e+00f, 9.20609534e-01f, 7.05398321e-01f, 1.02655816e+00f, 1.15999997e+00f, 8.27206314e-01f, 8.69682312e-01f, 9.38501775e-01f, 9.28994775e-01f, 8.37581456e-01f, 9.03504252e-01f, 1.01985085e+00f, 9.55445826e-01f, 7.47687280e-01f, 9.93747592e-01f, 7.92912304e-01f, 9.86326754e-01f, 7.86165297e-01f, 9.27753568e-01f, 8.86276126e-01f, 8.38418007e-01f, 8.66347730e-01f, 9.22267377e-01f, 8.62519026e-01f, 1.04898274e+00f, 9.73123372e-01f };

// batch_normalization_11_beta shape: [32]
const float batch_normalization_11_beta[] = { -2.04914108e-01f, 1.54058099e-01f, -2.23441467e-01f, -7.84946308e-02f, 3.05642128e-01f, 3.66678052e-02f, -1.12026401e-01f, -6.96894079e-02f, -2.25301415e-01f, -3.56743559e-02f, 9.30401310e-02f, 1.07345469e-01f, -9.31435451e-02f, -6.72531277e-02f, -1.19250111e-01f, -1.10985063e-01f, -6.15029074e-02f, -6.66706190e-02f, 7.45065212e-02f, 2.15057865e-01f, 4.55831625e-02f, -3.13717425e-02f, 5.23379296e-02f, 3.41923803e-01f, -1.94508024e-02f, -7.87968785e-02f, 1.29887536e-01f, -2.09178597e-01f, 7.41794845e-03f, 4.22775112e-02f, 1.06800839e-01f, 3.68921757e-02f };

// batch_normalization_11_mean shape: [32]
const float batch_normalization_11_mean[] = { 5.29250950e-02f, 1.09206878e-01f, -4.35242802e-01f, 4.19635355e-01f, 2.50451952e-01f, 3.42447519e-01f, -5.20492911e-01f, -1.01664469e-01f, 6.02574460e-02f, 1.50789972e-02f, -1.55564666e-01f, 4.14324492e-01f, -2.09501714e-01f, -3.67733315e-02f, -5.86124897e-01f, -6.82059899e-02f, -2.59087473e-01f, -2.40810104e-02f, -1.43462062e+00f, -2.32520923e-01f, 6.59763932e-01f, 4.01587397e-01f, -4.07586068e-01f, -2.35784963e-01f, 1.83907524e-02f, 1.13877125e-01f, -5.66065252e-01f, -1.97733298e-01f, 2.37857015e-03f, -4.72306281e-01f, -2.52050430e-01f, -2.76964635e-01f };

// batch_normalization_11_var shape: [32]
const float batch_normalization_11_var[] = { 2.62217045e-01f, 3.03338051e-01f, 2.71433353e-01f, 4.07717079e-01f, 2.43882388e-01f, 4.03862149e-01f, 9.40078437e-01f, 7.28316188e-01f, 1.42043546e-01f, 2.55893111e-01f, 3.33109498e-01f, 4.30368721e-01f, 2.90273666e-01f, 2.38205522e-01f, 4.89355803e-01f, 6.66869462e-01f, 2.88817465e-01f, 2.45171666e-01f, 2.27563858e+00f, 9.61426079e-01f, 6.18502021e-01f, 3.66535455e-01f, 6.06277943e-01f, 3.36705297e-01f, 2.59712100e-01f, 6.88107967e-01f, 6.53761506e-01f, 3.78175527e-01f, 6.50418580e-01f, 4.49781477e-01f, 6.37626708e-01f, 4.42984968e-01f };

// batch_normalization_12_gamma shape: [32]
const float batch_normalization_12_gamma[] = { 9.31118488e-01f, 9.99771357e-01f, 1.10661316e+00f, 9.68314767e-01f, 9.17007685e-01f, 9.90262091e-01f, 1.19247591e+00f, 7.21381664e-01f, 9.18663085e-01f, 9.59323645e-01f, 1.38558173e+00f, 7.85049975e-01f, 7.97903359e-01f, 9.17300463e-01f, 9.40197885e-01f, 9.09584284e-01f, 8.26502502e-01f, 9.43454862e-01f, 9.69999731e-01f, 8.55757058e-01f, 8.95233035e-01f, 6.72456920e-01f, 1.01067102e+00f, 1.09962344e+00f, 8.80209744e-01f, 7.83981085e-01f, 8.97633731e-01f, 1.17490184e+00f, 8.94585848e-01f, 9.11253631e-01f, 1.14067316e+00f, 9.58302200e-01f };

// batch_normalization_12_beta shape: [32]
const float batch_normalization_12_beta[] = { -1.10620849e-01f, -1.03255928e-01f, 1.47641799e-03f, 4.53203768e-02f, -7.49982446e-02f, -6.74376115e-02f, 1.10245116e-01f, -2.44327500e-01f, -1.02796935e-01f, 1.79062281e-02f, -1.55948460e-01f, -1.14845946e-01f, -1.40758991e-01f, -1.31144017e-01f, -1.49336001e-02f, -2.27578461e-01f, -2.93485373e-01f, -1.25996783e-01f, -1.18853256e-01f, -4.11317796e-02f, -1.09580979e-02f, -1.45112380e-01f, -3.76040846e-01f, -2.05189432e-03f, -1.01078622e-01f, -1.72242299e-01f, -1.43711179e-01f, -3.03036928e-01f, -2.04384521e-01f, -1.42559171e-01f, 9.89767760e-02f, 5.58231696e-02f };

// batch_normalization_12_mean shape: [32]
const float batch_normalization_12_mean[] = { 8.39839801e-02f, -1.53416544e-01f, 1.20194726e-01f, -1.80459172e-01f, -1.17212698e-01f, -2.05044970e-01f, -2.49524549e-01f, -4.56455164e-02f, 8.20387602e-02f, 1.99796110e-01f, -4.90896136e-01f, -1.13421306e-01f, -4.15999629e-02f, -1.67203724e-01f, -1.01834133e-01f, -4.69696783e-02f, -1.44481942e-01f, 1.55340821e-01f, -1.12092830e-02f, 1.32179726e-02f, -7.96653517e-03f, 1.43858781e-02f, 1.65366754e-02f, -3.91742975e-01f, 9.30150524e-02f, 4.03269567e-03f, -5.19411378e-02f, 1.38469368e-01f, 6.16196319e-02f, -8.57977476e-03f, -2.88758665e-01f, -1.53430039e-02f };

// batch_normalization_12_var shape: [32]
const float batch_normalization_12_var[] = { 5.29676042e-02f, 5.95945120e-02f, 1.69776585e-02f, 7.00517297e-02f, 5.20564578e-02f, 1.19342931e-01f, 1.75420288e-02f, 1.08338051e-01f, 2.21595652e-02f, 3.84729430e-02f, 4.70093042e-02f, 9.38645005e-02f, 2.41828896e-02f, 4.39748093e-02f, 1.31189814e-02f, 5.55448271e-02f, 1.96513429e-01f, 5.03747836e-02f, 3.35441972e-03f, 1.53135350e-02f, 3.08852252e-02f, 2.07676478e-02f, 2.25039870e-02f, 3.85086983e-02f, 4.47029509e-02f, 8.21833089e-02f, 9.29973647e-03f, 2.14914531e-02f, 7.33016208e-02f, 1.33165251e-02f, 1.98566429e-02f, 1.37122925e-02f };

// b3_pw_w shape: [1, 1, 32, 48]
const float b3_pw_w[] = { 2.75960475e-01f, 1.72255635e-01f, 1.87285393e-01f, 1.85568944e-01f, 1.98207632e-01f, 2.36699626e-01f, 1.89178735e-02f, 1.79227293e-01f, 1.09854829e-03f, -1.36412922e-02f, -8.19892157e-03f, 1.72234364e-02f, 1.27056122e-01f, -3.28089483e-02f, 2.59177387e-01f, 1.40624583e-01f, 2.11781651e-01f, -2.10428331e-02f, 2.36900210e-01f, 2.27629602e-01f, 1.83404163e-01f, 1.58000425e-01f, 1.62542269e-01f, -7.79695623e-03f, 1.66994110e-01f, 1.59303173e-01f, 1.41624687e-03f, 1.67661324e-01f, -3.81292067e-02f, -6.01884967e-04f, -3.14389504e-02f, 1.00432634e-01f, 2.22100064e-01f, 3.71201672e-02f, 1.33264214e-01f, 2.07245499e-01f, 1.67665154e-01f, 2.32046321e-01f, 2.23552987e-01f, 2.04395950e-01f, 1.81687549e-01f, 2.04388455e-01f, -2.26637144e-02f, -2.32972298e-02f, 2.75963396e-01f, 1.68963924e-01f, -8.51482805e-03f, 2.30221972e-01f, 1.41146913e-01f, 2.46239200e-01f, 9.63729098e-02f, 2.01562941e-01f, 3.55899066e-01f, 1.08687162e-01f, -1.56666219e-01f, 1.30823463e-01f, -1.22523002e-01f, -1.32717460e-01f, -1.07185513e-01f, -1.71857476e-01f, -2.42860571e-01f, -5.06668687e-02f, 2.27288142e-01f, 1.20589010e-01f, 2.12401778e-01f, -1.65985808e-01f, 3.08027714e-01f, 2.62421012e-01f, 2.53287196e-01f, 1.12205647e-01f, 2.74160534e-01f, -9.10251439e-02f, 2.45727450e-01f, 2.77341872e-01f, -1.48150578e-01f, 8.51636976e-02f, -1.79606840e-01f, -1.17761366e-01f, -1.12378806e-01f, -4.88722175e-02f, 3.11568141e-01f, -1.01093635e-01f, 1.84728980e-01f, 2.13251546e-01f, 7.63593689e-02f, 2.55176246e-01f, 3.09351057e-01f, 2.29974389e-01f, 2.61501819e-01f, 2.76241153e-01f, -1.89280227e-01f, -1.45387799e-01f, 1.56971589e-01f, 1.93839863e-01f, -1.19058870e-01f, 2.28857219e-01f, 1.89273104e-01f, 2.05692053e-01f, 2.15263993e-01f, 2.36322150e-01f, 2.30116531e-01f, 2.12297678e-01f, -1.27541110e-01f, 2.05937251e-01f, -8.39679390e-02f, -1.03229433e-01f, -1.06871247e-01f, -7.45058060e-02f, 9.21873841e-03f, -5.31083792e-02f, 1.42043605e-01f, 3.10518533e-01f, 2.79075533e-01f, -1.27938434e-01f, 3.21381092e-01f, 1.15387350e-01f, 1.17038898e-01f, 2.47058153e-01f, 2.04409242e-01f, -1.03144549e-01f, 2.85513639e-01f, 1.11800097e-01f, -6.62778094e-02f, 1.99504048e-01f, -1.08249016e-01f, -1.02556288e-01f, -9.87943858e-02f, 1.94262058e-01f, 2.01843292e-01f, -8.68066326e-02f, 2.06004128e-01f, 3.03334683e-01f, 2.12453470e-01f, 2.17734411e-01f, 2.85677731e-01f, 2.13603556e-01f, 1.19462833e-01f, 2.16054961e-01f, -1.12245969e-01f, -1.07765235e-01f, 1.57913357e-01f, 3.00546050e-01f, -1.01598501e-01f, 1.85774595e-01f, -7.70196021e-02f, -6.31285608e-02f, -1.82400256e-01f, -1.67716473e-01f, -1.46841913e-01f, -2.31370062e-01f, -1.45664541e-02f, -2.58149952e-01f, 1.04347996e-01f, 1.91656753e-01f, 6.79572597e-02f, 8.02733079e-02f, 1.78442642e-01f, 2.07263790e-03f, -1.28341168e-01f, -2.15906605e-01f, -1.11648012e-02f, -6.00321665e-02f, 3.95746157e-02f, -2.36239880e-01f, -1.27193704e-01f, -3.66662174e-01f, -4.00300801e-01f, -5.29555678e-02f, -6.68214560e-02f, -2.44837776e-01f, 9.81311202e-02f, -1.18764549e-01f, 4.42899987e-02f, 6.27900958e-02f, -7.21827224e-02f, -1.34094849e-01f, 3.09538320e-02f, 4.25090492e-02f, -5.47221415e-02f, -7.64818788e-02f, -3.04845899e-01f, -2.17876703e-01f, -2.32576519e-01f, -2.83068180e-01f, -3.27430964e-01f, -3.80209982e-01f, 1.63956180e-01f, 1.16353884e-01f, 2.48958822e-02f, -2.25520164e-01f, 1.80086404e-01f, -3.12558375e-03f, -2.74638385e-01f, 2.09413022e-01f, 5.36775067e-02f, -1.92542225e-01f, -1.51749570e-02f, 2.77085334e-01f, -2.58073211e-01f, 1.86875135e-01f, -1.22259311e-01f, -2.51495719e-01f, -1.21555969e-01f, -2.38517031e-01f, -2.35320613e-01f, -1.76985458e-01f, -7.06923455e-02f, -7.56319761e-02f, 1.89697146e-01f, -1.88817486e-01f, 1.16992451e-01f, -1.72505841e-01f, 1.57141671e-01f, -9.66895595e-02f, -5.79557009e-03f, -9.45802107e-02f, -5.55791892e-02f, -2.59884477e-01f, -1.22027494e-01f, -2.22421646e-01f, -1.04954794e-01f, -1.31523222e-01f, -1.13918982e-01f, -9.81193781e-02f, -1.63857132e-01f, -2.02292994e-01f, 1.45847499e-01f, 6.81043640e-02f, 1.75641552e-02f, -2.18395174e-01f, -1.07477859e-01f, -7.65612647e-02f, -1.05581261e-01f, 4.44860943e-02f, -1.93583846e-01f, -1.78205475e-01f, 1.21024020e-01f, 2.10676581e-01f, -7.68746287e-02f, -1.08424902e-01f, 1.18042745e-01f, 1.43261328e-01f, -1.50460172e-02f, -1.69149697e-01f, -1.55411344e-02f, -2.37810984e-01f, -2.41442546e-01f, -1.17200144e-01f, 5.07657118e-02f, -9.61928144e-02f, -2.52107382e-01f, 1.43101320e-01f, 8.70185792e-02f, -1.31786406e-01f, -1.93815574e-01f, -1.30857706e-01f, -1.99328080e-01f, -1.86498955e-01f, -2.23947838e-01f, 3.16503868e-02f, -5.22850119e-02f, -2.37584382e-01f, 6.44850358e-03f, -2.21989572e-01f, 7.05956295e-02f, 1.23329021e-01f, 7.73098692e-02f, -1.31886587e-01f, -1.91346914e-01f, -1.94581360e-01f, -2.83736229e-01f, -2.11438969e-01f, 2.46880889e-01f, 1.29902720e-01f, -8.39477256e-02f, -2.46332996e-02f, -4.95646372e-02f, -2.69747019e-01f, 6.77412525e-02f, -4.64226902e-02f, -5.82478568e-02f, 1.81508228e-01f, -1.73915803e-01f, -2.25536853e-01f, 1.64328888e-01f, -1.36278737e-02f, -3.16186130e-01f, 4.13282663e-02f, -1.84313744e-01f, -3.11526030e-01f, -1.57240957e-01f, -2.27632001e-01f, -2.32433513e-01f, 4.05797251e-02f, 2.17761829e-01f, -2.75710970e-01f, 1.68353990e-01f, 1.72281295e-01f, 1.70483664e-01f, 1.18701577e-01f, 2.48053282e-01f, 2.46801183e-01f, 4.99134734e-02f, -2.23730579e-01f, -2.72793293e-01f, 1.84054956e-01f, -1.88449621e-01f, -3.02595198e-01f, -2.60335952e-01f, -2.61171967e-01f, -1.38612926e-01f, 1.88904509e-01f, -1.72279000e-01f, -3.28695625e-01f, 1.44254953e-01f, -2.92482376e-01f, 1.79437265e-01f, 1.75792828e-01f, 1.58905476e-01f, -2.21986338e-01f, -2.75482178e-01f, 1.62246794e-01f, -1.63466141e-01f, -1.34854615e-01f, -2.81618834e-01f, -2.72164643e-01f, -1.92187443e-01f, -2.68311620e-01f, -2.79899925e-01f, -6.36970624e-02f, 2.34851778e-01f, 1.63712353e-01f, -2.34511361e-01f, -1.97876289e-01f, 2.06721023e-01f, -1.47623017e-01f, 2.26583451e-01f, -2.94369478e-02f, -2.46192276e-01f, -4.83827032e-02f, 3.68504301e-02f, -1.13106810e-01f, -1.09936900e-01f, -8.24887380e-02f, -3.84237804e-02f, -6.97285384e-02f, 2.42650621e-02f, 1.09740287e-01f, 6.72518089e-02f, -6.54989257e-02f, 1.80680334e-04f, -1.74763997e-03f, 2.27174498e-02f, -1.88964948e-01f, 2.84827203e-01f, 4.35370840e-02f, -5.72403800e-03f, 9.87652093e-02f, 1.60540342e-01f, 3.56360339e-02f, -6.44643381e-02f, 1.01501271e-02f, 1.11226350e-01f, -9.69435200e-02f, -2.15621606e-01f, -6.64948672e-02f, 8.44892114e-03f, -5.16119935e-02f, 1.26009181e-01f, -1.78541820e-02f, 8.79791658e-03f, 1.71177819e-01f, 1.54937685e-01f, -6.94571659e-02f, -1.53836876e-01f, 1.32355422e-01f, -2.07801759e-02f, -2.72668153e-03f, -3.84784788e-02f, 4.78017703e-03f, -8.70242938e-02f, -9.71445888e-02f, 3.24170291e-02f, -2.92117279e-02f, -5.70947723e-03f, -1.45424977e-01f, -2.23958746e-01f, -6.09556511e-02f, -5.98175861e-02f, -1.55285105e-01f, 1.41216174e-01f, -6.55719861e-02f, 1.24255389e-01f, 1.14953585e-01f, 1.00442953e-01f, 8.83134976e-02f, 3.38081643e-02f, 8.12931880e-02f, -8.19154009e-02f, -2.60550648e-01f, -1.27995521e-01f, 1.53781205e-01f, -3.24851759e-02f, -3.48984413e-02f, 4.06086743e-02f, -2.89967209e-01f, -4.23932970e-02f, 1.19129561e-01f, -2.70607591e-01f, 1.26855848e-02f, 1.82175145e-01f, -2.72353236e-02f, 1.23621710e-01f, 1.20233111e-01f, 1.05335876e-01f, -1.45557210e-01f, -2.54318625e-01f, 1.69813320e-01f, 3.05314697e-02f, -1.57071408e-02f, -6.91536590e-02f, -4.85855639e-02f, -2.07628325e-01f, -4.43376899e-02f, -1.44831941e-01f, -9.92621481e-02f, 8.03266838e-02f, 1.18895888e-01f, -5.42167909e-02f, -2.41359249e-01f, 1.03387274e-01f, -4.94785793e-02f, 1.66139841e-01f, 2.24249326e-02f, 1.37117550e-01f, 7.86776990e-02f, -2.80715935e-02f, 1.53209686e-01f, -2.40609705e-01f, 3.30142514e-03f, -3.22016448e-01f, -2.74893671e-01f, -2.68662900e-01f, -2.07555741e-01f, -2.45239258e-01f, -2.68259495e-01f, 2.64525041e-02f, 3.07706837e-03f, 1.47107206e-02f, -3.07571352e-01f, -8.56508613e-02f, 7.97694996e-02f, -8.94530639e-02f, -5.36790080e-02f, 2.36727465e-02f, -2.70848960e-01f, 9.36590508e-02f, 8.65842551e-02f, -3.13423067e-01f, 1.05790377e-01f, -2.61296302e-01f, -2.78672814e-01f, -2.14182809e-01f, 3.50383930e-02f, 7.52185052e-03f, -3.14988852e-01f, 1.12695880e-01f, -1.24652265e-02f, -4.25818861e-02f, 7.34193996e-02f, 9.88968685e-02f, 9.41731036e-02f, 1.99426170e-02f, 9.21771675e-02f, -3.07804853e-01f, -2.57620335e-01f, -6.18901476e-02f, 1.49321675e-01f, -2.20485300e-01f, 1.52823403e-01f, -2.94350982e-01f, -2.16901273e-01f, -3.09659451e-01f, -2.89816171e-01f, -2.86139011e-01f, -3.43318075e-01f, 4.65224683e-01f, -2.73982704e-01f, 4.60376084e-01f, 4.72958475e-01f, 4.20869201e-01f, 3.46517771e-01f, 4.21674639e-01f, 4.73984122e-01f, -3.17223012e-01f, -3.53673249e-01f, -2.75934011e-01f, 4.72252697e-01f, -2.51294285e-01f, -2.22842544e-01f, -2.56453842e-01f, -3.03351939e-01f, -2.30961964e-01f, 4.15671349e-01f, -2.08980367e-01f, -2.56805986e-01f, 4.19314086e-01f, -2.53300995e-01f, 3.97545040e-01f, 4.32946026e-01f, 3.62846911e-01f, -3.50447357e-01f, -2.98804045e-01f, 4.31594938e-01f, -2.83916324e-01f, -3.00622344e-01f, -2.93511987e-01f, -2.18438670e-01f, -3.46601456e-01f, -2.60328680e-01f, -2.91436046e-01f, -2.76633501e-01f, 4.78697598e-01f, 4.44073886e-01f, -9.46120843e-02f, -1.28308639e-01f, 4.08906579e-01f, -3.37321460e-01f, -1.51891977e-01f, -2.10115407e-02f, -3.47505771e-02f, -1.14970051e-01f, 5.99048026e-02f, -7.09322020e-02f, 6.02773055e-02f, 1.29690111e-01f, 3.21120530e-01f, -8.35154280e-02f, -7.30613768e-02f, -2.38737762e-01f, -1.56714767e-01f, 8.19539800e-02f, 2.12659270e-01f, -1.02209948e-01f, -6.63485676e-02f, 7.83345476e-02f, 2.60778274e-02f, -1.06825382e-01f, -1.50623649e-01f, -1.06642559e-01f, -7.55168721e-02f, 3.16178962e-03f, -1.31226361e-01f, -4.15450409e-02f, 3.56348492e-02f, -8.96297842e-02f, 2.76895821e-01f, 1.74202636e-01f, 1.50715381e-01f, -9.62323397e-02f, -2.35422939e-01f, 1.51198700e-01f, -8.45161304e-02f, -1.54643536e-01f, -9.24739614e-02f, 7.47751072e-02f, 1.16248369e-01f, -1.58906966e-01f, 8.89965296e-02f, 6.35079341e-03f, -5.64251095e-02f, 1.21220380e-01f, -9.03460011e-02f, 4.87264022e-02f, 1.27857953e-01f, 2.58709677e-02f, -9.28155929e-02f, 6.30327016e-02f, -1.87860087e-01f, -1.25355989e-01f, -9.33271945e-02f, 5.81855178e-02f, 1.10771276e-01f, -3.10098708e-01f, -7.53214657e-02f, 1.26544788e-01f, 6.46476373e-02f, -7.98698217e-02f, -9.24313143e-02f, 1.90347150e-01f, -1.15412511e-01f, 1.16973698e-01f, 1.43562689e-01f, 1.20296270e-01f, 1.31742790e-01f, -2.49113962e-01f, -2.58179784e-01f, 2.13580430e-01f, 1.91556752e-01f, 3.67556401e-02f, 2.09602751e-02f, -2.02499062e-01f, 1.06972463e-01f, -2.31984198e-01f, -5.63592315e-02f, 9.74808633e-02f, 9.90543701e-03f, -8.07279572e-02f, -1.81212038e-01f, 4.48754616e-02f, -2.00914592e-01f, 2.07344815e-01f, 5.76504953e-02f, 1.28135383e-02f, -5.43066226e-02f, -2.59147972e-01f, 1.96011186e-01f, 8.92562605e-03f, 5.24494350e-02f, -5.26935458e-02f, -6.22163005e-02f, -3.02772112e-02f, 8.29434395e-02f, 1.57054648e-01f, -1.13023326e-01f, 2.14776859e-01f, -4.20064181e-02f, 1.90339267e-01f, 2.36342669e-01f, 2.20327243e-01f, -2.77172178e-02f, 3.66809070e-02f, -1.51301354e-01f, -1.17290102e-01f, -1.29979402e-01f, -8.36346895e-02f, -3.00553113e-01f, -1.13192677e-01f, 1.68103069e-01f, -3.75591815e-02f, 2.69259095e-01f, -3.56650203e-02f, -2.35172398e-02f, 1.49943242e-02f, 2.22376168e-01f, 6.44294694e-02f, -2.48137768e-02f, -8.00631344e-02f, 1.92307290e-02f, -3.79604213e-02f, -1.32521376e-01f, 1.78561173e-02f, -3.61575908e-03f, -1.08285323e-01f, 3.32565270e-02f, 1.98558360e-01f, -4.85018790e-02f, -1.35450885e-01f, 9.10021085e-03f, 3.15681159e-01f, 9.97567177e-02f, 3.48330364e-02f, 1.10079460e-01f, 2.16530129e-01f, 1.00782402e-01f, 1.51760280e-01f, 2.54274216e-02f, -1.88010037e-01f, 2.76574045e-01f, 2.47853681e-01f, -1.32234395e-01f, 2.27715611e-01f, 1.86815411e-01f, -2.46096309e-02f, 1.35832623e-01f, -1.03956759e-01f, -4.63671684e-02f, 2.44139731e-01f, 6.55916240e-03f, -6.04029223e-02f, -4.77288328e-02f, 9.55639593e-03f, -1.94089845e-01f, 3.85151170e-02f, -2.28989795e-01f, -2.28669882e-01f, 1.61260664e-01f, 1.70872897e-01f, 2.34090425e-02f, -1.12616815e-01f, 1.36736110e-01f, -1.08577840e-01f, 1.81064650e-01f, 1.90206066e-01f, 2.66299725e-01f, -2.52535492e-01f, -1.29876673e-01f, 1.64733514e-01f, -3.85505520e-02f, -5.75725269e-03f, 1.54458871e-02f, -1.42735094e-01f, -7.22140297e-02f, -1.36362970e-01f, 1.36607438e-02f, -1.23721324e-01f, -1.41333669e-01f, 4.61333357e-02f, 1.93998784e-01f, -1.99457884e-01f, 9.60014910e-02f, -7.74444193e-02f, 2.41982430e-01f, -3.32723595e-02f, -7.88055360e-02f, -1.45328138e-02f, -7.65948966e-02f, -2.03563452e-01f, -9.97552723e-02f, 2.32856318e-01f, 1.49709299e-01f, 1.51588827e-01f, -1.84498951e-01f, -1.79665044e-01f, -5.75864837e-02f, -5.06001636e-02f, -8.12324286e-02f, 1.73079371e-01f, -2.38966882e-01f, -1.77238718e-01f, 8.45239609e-02f, 2.32151896e-01f, -1.02589190e-01f, -7.74300611e-03f, 3.11613500e-01f, 7.74915367e-02f, 1.62975676e-02f, -9.48140174e-02f, 1.84984639e-01f, 1.78748712e-01f, 5.72225451e-02f, 1.17891729e-02f, -9.86014381e-02f, -4.65111472e-02f, -1.92039922e-01f, -1.74124628e-01f, 2.01156482e-01f, 1.62107810e-01f, -1.67555586e-01f, -2.17313439e-01f, 1.68804348e-01f, -1.20602055e-02f, -1.47657380e-01f, 4.66655344e-02f, 9.06649083e-02f, -7.80755952e-02f, 1.70378536e-01f, -1.05236463e-01f, -2.26815030e-01f, -2.79134482e-01f, -1.22332811e-01f, -1.50097013e-01f, -1.40683487e-01f, -2.11014688e-01f, -7.85702933e-03f, 7.72147849e-02f, 3.63721922e-02f, 1.94852993e-01f, 3.35184485e-02f, -8.03635642e-02f, 2.37965778e-01f, -2.04826325e-01f, 2.11550761e-02f, 5.62686548e-02f, 3.97813767e-02f, -1.42397255e-01f, -4.84370776e-02f, 1.55012965e-01f, -6.54923171e-02f, 1.46744072e-01f, 2.21715033e-01f, -1.73038915e-01f, -6.01877868e-02f, -7.73410797e-02f, -1.21724224e-02f, 5.10281473e-02f, 1.80074185e-01f, 6.67052492e-02f, -1.38205528e-01f, 1.28163844e-01f, 1.90526798e-01f, -3.67239267e-02f, 8.38464573e-02f, -1.54788047e-01f, 1.85954854e-01f, -5.54951616e-02f, 7.51330750e-03f, -1.18845567e-01f, 1.94489032e-01f, 1.11570612e-01f, 6.82153702e-02f, -9.82680097e-02f, -1.40251294e-02f, 1.98466405e-01f, -2.79927552e-01f, -2.29356930e-01f, 3.10631581e-02f, -2.03454450e-01f, -3.82278338e-02f, 3.41124773e-01f, -1.25545785e-01f, -2.37320766e-01f, 1.30795181e-01f, -5.80587015e-02f, -5.47121167e-02f, -8.87979940e-02f, 7.34490231e-02f, 1.69538453e-01f, 1.05205886e-01f, 1.56547204e-01f, 1.63864374e-01f, 6.64613321e-02f, -9.19585675e-02f, 1.04400739e-01f, -5.36685213e-02f, -3.47639620e-02f, -6.29943386e-02f, -3.32918353e-02f, -8.11257064e-02f, -7.23125041e-02f, 2.00783119e-01f, 1.80963263e-01f, 1.33988291e-01f, -9.08214748e-02f, 1.70101225e-01f, 9.70745459e-02f, 1.88110054e-01f, 2.12183580e-01f, 1.04856893e-01f, -6.97532222e-02f, 1.78020298e-01f, 1.33342847e-01f, -3.92321944e-02f, 1.29514202e-01f, -7.14045167e-02f, -6.53603300e-02f, -6.47054091e-02f, 1.13232151e-01f, 1.89445883e-01f, -5.55442348e-02f, 1.94340721e-01f, 1.97885752e-01f, 9.20496434e-02f, 1.24056771e-01f, 1.28671154e-01f, 1.14438534e-01f, 1.81343749e-01f, 1.56299368e-01f, -3.87129039e-02f, -6.84384406e-02f, 5.16370684e-02f, 1.53937817e-01f, -6.90350011e-02f, 1.12278096e-01f, 3.10647208e-02f, 1.78359121e-01f, -5.43272996e-04f, 3.38896886e-02f, 2.92343572e-02f, 1.64880022e-01f, -1.86526537e-01f, 3.40102911e-01f, -1.20336868e-01f, -1.61005601e-01f, -8.38340595e-02f, -1.31186411e-01f, -2.65990794e-02f, -9.21483263e-02f, 1.52794704e-01f, -1.66620426e-02f, 2.27836743e-01f, -1.57385930e-01f, 1.93298116e-01f, 3.32006067e-02f, 3.54150496e-02f, 2.78658748e-01f, 2.96832561e-01f, -5.39493933e-02f, -5.67985000e-03f, 6.27806187e-02f, -1.15738235e-01f, 2.41941586e-01f, -1.15252331e-01f, -8.64997879e-02f, -1.06302366e-01f, 4.12208766e-01f, 5.74077442e-02f, -1.04324065e-01f, 1.30650237e-01f, 2.12372229e-01f, 4.79386421e-03f, 1.33043483e-01f, -5.41705117e-02f, -5.74998334e-02f, 3.09504688e-01f, 3.10449153e-01f, -8.32536593e-02f, -1.46120757e-01f, -8.53033289e-02f, 6.82620555e-02f, -4.39432450e-02f, -1.33244246e-01f, -1.30634695e-01f, -1.24164887e-01f, 7.19068274e-02f, 2.46831588e-02f, -1.93472147e-01f, 2.43028820e-01f, -1.40462637e-01f, -1.67478219e-01f, 9.80832428e-03f, -4.50563654e-02f, 2.95900414e-03f, 1.66138494e-03f, 2.06992235e-02f, 6.00787103e-02f, 1.51811332e-01f, 6.18494339e-02f, -3.55663188e-02f, 7.29470924e-02f, 1.88192040e-01f, -2.63368845e-01f, -2.33643591e-01f, -1.83740165e-02f, 8.14224482e-02f, -1.32226069e-02f, 1.63702443e-01f, -1.31879881e-01f, -2.80204206e-03f, -2.03163132e-01f, 3.17340605e-02f, 3.13294679e-02f, -4.65306230e-02f, -1.91514656e-01f, -6.28929883e-02f, 1.55154327e-02f, -1.89668208e-01f, 1.48100048e-01f, -4.14478593e-02f, 7.74525702e-02f, -1.57030821e-01f, -8.10910463e-02f, 1.21094445e-02f, 1.46745086e-01f, 7.86657259e-02f, -1.80124082e-02f, -1.59236208e-01f, -1.04872666e-01f, 2.09974330e-02f, -1.61269963e-01f, -1.38563842e-01f, -2.20286280e-01f, -2.71913171e-01f, 7.11940825e-02f, -1.73323512e-01f, -2.63041437e-01f, -5.45770936e-02f, -2.20809057e-01f, -1.52932122e-01f, -3.96105796e-02f, -1.29625976e-01f, -2.04919260e-02f, 1.56728830e-02f, -9.78793278e-02f, 2.47049425e-02f, -1.57954186e-01f, -2.99545318e-01f, -1.58044249e-01f, -7.73281530e-02f, -1.93848431e-01f, 2.38027554e-02f, -3.02664161e-01f, -9.78717953e-03f, -1.26495481e-01f, -5.02392650e-02f, -2.53132403e-01f, -1.68734621e-02f, 8.79224949e-03f, -1.66463554e-01f, -1.44903347e-01f, -9.58182216e-02f, -1.47066832e-01f, -1.04718484e-01f, -3.43795121e-02f, -2.49138236e-01f, -1.53687105e-01f, -2.18521386e-01f, -2.57630716e-03f, -9.17589962e-02f, 6.47412390e-02f, -1.83596328e-01f, -2.26933077e-01f, -1.36372030e-01f, -9.14175883e-02f, 3.71651500e-02f, 1.20715298e-01f, -1.81126475e-01f, -1.28009871e-01f, -2.43855581e-01f, -7.73540959e-02f, -1.76214844e-01f, -4.10482623e-02f, -2.06779361e-01f, 4.32068743e-02f, 6.51414245e-02f, -7.99595937e-02f, 1.46712381e-02f, 9.46260318e-02f, 6.24590516e-02f, 1.39353089e-02f, -5.50297834e-03f, 9.77875963e-02f, 7.08261654e-02f, 1.09002352e-01f, 1.23032127e-02f, 2.04496589e-02f, -1.93073094e-01f, 2.13250611e-03f, 1.85684353e-01f, 5.77877611e-02f, -3.62037905e-02f, 5.05289249e-02f, -2.60732882e-02f, -2.15838984e-01f, -3.48678045e-02f, 9.96132270e-02f, 2.85673626e-02f, 1.52493669e-02f, -7.68139362e-02f, 7.00293705e-02f, -1.58665195e-01f, 2.87539847e-02f, -1.61841363e-01f, -7.02216402e-02f, -1.24271646e-01f, -1.08864019e-02f, -1.77699775e-01f, 8.77995193e-02f, 5.24758473e-02f, -3.40476707e-02f, 1.02900036e-01f, 5.37231518e-03f, 7.10012857e-03f, 2.17535608e-02f, -1.28514245e-02f, -2.64812738e-01f, 9.20906588e-02f, 3.16236198e-01f, 3.25486630e-01f, 2.85555422e-01f, 2.32341856e-01f, 1.89317793e-01f, -1.43806547e-01f, -3.85347120e-02f, -6.71667606e-02f, -1.22485004e-01f, -9.60163772e-02f, -6.35769293e-02f, -1.23205118e-01f, -1.08074717e-01f, 3.25400531e-01f, 2.85681158e-01f, 2.39436552e-01f, -1.27275243e-01f, 2.69413203e-01f, 1.64198101e-01f, 1.94964021e-01f, 2.88771451e-01f, 7.99527913e-02f, -8.73422623e-02f, 2.32765377e-01f, 2.83745140e-01f, -1.16806649e-01f, 1.74628094e-01f, -7.86788762e-02f, -1.10487029e-01f, -9.00885984e-02f, 1.24047101e-01f, 2.88388461e-01f, -1.10135637e-01f, 1.81259260e-01f, 3.36120933e-01f, 1.78339273e-01f, 6.40403405e-02f, 1.13974489e-01f, 6.68700114e-02f, 2.21451730e-01f, 2.94139385e-01f, -1.23885438e-01f, -9.25891176e-02f, -1.16716132e-01f, 1.77113980e-01f, -9.30881798e-02f, -4.20713164e-02f, -6.23117723e-02f, 6.80662245e-02f, 1.27222285e-01f, 1.93574309e-01f, 2.05973506e-01f, 1.47995520e-02f, -3.18274736e-01f, 1.77875772e-01f, -2.23796397e-01f, -2.71889716e-01f, -2.60456413e-01f, -1.63650975e-01f, -2.95770675e-01f, -2.40969792e-01f, 1.51790589e-01f, 1.86923265e-01f, 1.25696406e-01f, -2.87269950e-01f, 1.60363019e-01f, -2.26742066e-02f, 3.58621851e-02f, 8.73446465e-03f, 1.65575415e-01f, -2.82248378e-01f, 1.64653972e-01f, 2.73170210e-02f, -1.61674589e-01f, 7.12230653e-02f, -2.49648184e-01f, -2.94416636e-01f, -2.53169954e-01f, -9.84218940e-02f, 1.29960433e-01f, -1.91530958e-01f, -8.63951594e-02f, -4.31569703e-02f, 1.57423988e-01f, 1.53259590e-01f, 1.24284238e-01f, 1.29673257e-01f, 1.63778827e-01f, 8.41506049e-02f, -3.17538857e-01f, -2.64952302e-01f, 2.04988554e-01f, 6.86622038e-02f, -3.30613345e-01f, 2.79414491e-03f, 2.62679029e-02f, 2.53682971e-01f, 1.34857252e-01f, 2.29608431e-01f, -7.01033399e-02f, 1.62599623e-01f, -1.76125467e-01f, -7.71946460e-02f, -5.68405772e-03f, -3.47810728e-03f, -6.57983869e-02f, -1.51505228e-02f, -1.79566398e-01f, -5.49426973e-02f, 1.24540828e-01f, 1.52485609e-01f, -2.21223924e-02f, -5.34341820e-02f, 1.25574559e-01f, 2.36094043e-01f, 1.82815135e-01f, 1.92411810e-01f, -1.03389308e-01f, -7.83269405e-02f, 2.50333697e-01f, 1.43577410e-02f, -1.20117612e-01f, 1.87887654e-01f, 2.01102681e-02f, -4.21363600e-02f, -2.02949364e-02f, 2.16241628e-02f, 2.14990690e-01f, -1.07834622e-01f, 2.19576508e-01f, 2.40287796e-01f, -1.94650367e-02f, 1.21175773e-01f, 1.08493291e-01f, 1.00827239e-01f, 1.11728422e-01f, 9.09345821e-02f, 5.22794959e-04f, -9.47566554e-02f, 1.95089402e-03f, 1.46782994e-01f, 2.81974785e-02f, 9.89258662e-02f, -2.58793265e-01f, -8.71006623e-02f, -5.88692315e-02f, -7.83176646e-02f, 1.38174728e-01f, 1.16731003e-02f, 1.79847881e-01f, 1.29554361e-01f, 7.82343745e-02f, -4.74014506e-02f, -2.16707706e-01f, -3.27994138e-01f, 2.23236725e-01f, -3.65976430e-02f, 6.30283281e-02f, -3.63146551e-02f, 3.66600044e-02f, -1.78058311e-01f, -1.26171172e-01f, 8.81822929e-02f, 1.43174693e-01f, 1.27030030e-01f, 2.11068109e-01f, -3.75118963e-02f, -1.82345659e-01f, -5.12965359e-02f, 4.36755596e-03f, -1.84051618e-01f, -1.66842535e-01f, 2.85649486e-02f, -2.32201323e-01f, 5.31883836e-02f, -1.18543699e-01f, 4.79664989e-02f, -6.75325096e-02f, -2.05155432e-01f, -1.48572341e-01f, -2.13250369e-01f, 1.70659468e-01f, -5.56292348e-02f, 1.68438226e-01f, 8.21627229e-02f, -2.52644122e-01f, 1.20590821e-01f, 1.70238256e-01f, 1.80807292e-01f, -2.43434280e-01f, -1.51614487e-01f, 1.35130242e-01f, 2.04328939e-01f, 1.15709916e-01f, 1.08905956e-01f, 2.20821783e-01f, 2.50360847e-01f, -2.09904566e-01f, 7.14503080e-02f, -1.79440513e-01f, -1.56274900e-01f, -7.09472075e-02f, -1.06428772e-01f, -1.38837874e-01f, -1.51604906e-01f, 2.68377066e-01f, 2.00569676e-03f, -1.73037499e-01f, -1.39109671e-01f, 1.12126037e-01f, 1.01499252e-01f, -1.97188884e-01f, 2.64677405e-01f, 4.34155837e-02f, -1.24336421e-01f, 1.65321201e-01f, -1.14048906e-02f, -1.42945156e-01f, 1.93600208e-02f, -1.22897863e-01f, -1.13919407e-01f, -1.50161818e-01f, -3.26542417e-03f, 1.92023590e-01f, -1.11208215e-01f, 1.63866416e-01f, 2.05757961e-01f, 7.97636732e-02f, 2.31338888e-02f, -2.50032526e-02f, -1.22946702e-01f, 6.81717917e-02f, 1.86576590e-01f, -1.77178144e-01f, -1.83291942e-01f, 9.83930379e-02f, -5.78945540e-02f, -1.65474206e-01f, 1.59931451e-01f, -1.37614578e-01f, -7.38953948e-02f, -4.27694581e-02f, -1.19752795e-01f, -9.03339908e-02f, -1.03374422e-01f, 3.46404284e-01f, -5.84759340e-02f, 3.01955700e-01f, 3.20157468e-01f, 3.20432186e-01f, 2.66271114e-01f, 5.15463293e-01f, 2.07382873e-01f, -1.34968102e-01f, -4.94227372e-02f, -9.80551764e-02f, 3.39430779e-01f, -1.63950384e-01f, -7.34368339e-02f, -1.42680973e-01f, -1.69911329e-02f, -9.29959267e-02f, 2.99219072e-01f, -9.55369323e-02f, -9.10165608e-02f, 2.98753113e-01f, -1.03037395e-01f, 3.36436659e-01f, 2.95473278e-01f, 2.79082060e-01f, -5.95456138e-02f, -1.52958874e-02f, 3.07578474e-01f, -1.77804291e-01f, -1.85892045e-01f, -7.08326250e-02f, -1.29578888e-01f, -7.32324719e-02f, -9.50901881e-02f, -5.88020571e-02f, -1.24686934e-01f, 3.62351537e-01f, 2.75730133e-01f, -8.83091390e-02f, -1.39090225e-01f, 2.82853216e-01f, -7.73234665e-02f, -7.70615637e-02f, -1.65454775e-01f, 1.05364677e-02f, -2.36514270e-01f, -8.29736441e-02f, 6.76099351e-03f, -2.71826655e-01f, -1.50886223e-01f, -1.35651827e-01f, -1.65910721e-01f, -1.52172044e-01f, -5.15901186e-02f, -2.38234267e-01f, -1.40083686e-01f, -7.94303641e-02f, -2.55176704e-02f, 8.67216848e-03f, -1.79010972e-01f, 7.09587783e-02f, -6.60839528e-02f, 4.12645424e-03f, 1.06059946e-01f, 9.78961661e-02f, -2.07241729e-01f, -1.26442155e-02f, 1.29234314e-01f, -2.61715412e-01f, -2.03483999e-01f, -1.01405330e-01f, -1.81874365e-01f, -1.44494206e-01f, 7.56557509e-02f, 4.40811589e-02f, -2.74181932e-01f, -2.19405573e-02f, -1.32245636e-02f, -1.30167425e-01f, -1.64562896e-01f, 1.33926108e-01f, -8.44571367e-02f, 2.08570380e-02f, 1.48010001e-01f, -1.32754259e-02f, -1.68888539e-01f, 2.10782036e-01f, -1.82656776e-02f, -1.05833739e-01f, 1.47397965e-01f, -4.47108820e-02f, 1.82889059e-01f, 2.70473748e-01f, 1.13180175e-01f, 2.38142997e-01f, 9.40126702e-02f, -2.89033866e-04f, 2.00726822e-01f, 7.79396296e-02f, -2.30497830e-02f, 8.03300291e-02f, 1.26548290e-01f, 4.88701127e-02f, -4.91960011e-02f, 4.27051000e-02f, -3.20237093e-02f, -4.89480607e-02f, 1.98827833e-01f, 5.60166612e-02f, -8.90063122e-02f, -6.12750314e-02f, -5.12069725e-02f, -8.45497474e-02f, 3.09880842e-02f, 1.87987238e-01f, 1.48052350e-01f, -1.75349955e-02f, 2.16378093e-01f, 1.79990605e-01f, 6.73758909e-02f, 7.15460777e-02f, 2.45491952e-01f, -1.66679006e-02f, 9.24537331e-02f, 6.15879446e-02f, -7.10018650e-02f, 9.09858942e-02f, 1.14427917e-01f, 1.99513331e-01f, -3.23756784e-02f, 6.43395726e-03f, 1.86250791e-01f, 1.01000868e-01f, 6.97415620e-02f, 1.26924619e-01f, 2.07371399e-01f, 4.82355729e-02f, 1.88325912e-01f, 3.05923164e-01f, 2.93777645e-01f, 2.60373086e-01f, 2.27668077e-01f, 2.37666175e-01f, 5.17392568e-02f, -2.08367240e-02f, 1.52050510e-01f, -8.15664604e-03f, -1.24629708e-02f, 1.63326841e-02f, 1.51211268e-03f, -1.03296198e-01f, -3.26816328e-02f, -3.38067114e-02f, 1.58291042e-01f, 2.96689212e-01f, 3.50873568e-03f, 1.56411100e-02f, 3.88239115e-01f, 3.79147679e-01f, -1.18509633e-02f, -6.54416308e-02f, -3.90311843e-03f, 2.47151211e-01f, 2.26860091e-01f, -7.30251987e-03f, 1.72107205e-01f, -1.45376520e-03f, -5.98041620e-03f, -7.03087728e-03f, 3.35151017e-01f, 3.19696635e-01f, -2.09561419e-02f, 2.70494461e-01f, 1.55744746e-01f, 1.39931008e-01f, 3.21206331e-01f, 3.02609622e-01f, 2.77968705e-01f, 3.46492082e-02f, 4.89065759e-02f, -8.44245683e-03f, -8.39467067e-03f, 3.33080024e-01f, 2.96617627e-01f, -1.61401294e-02f, 3.54314625e-01f, -7.15663359e-02f, -1.52641803e-01f, 1.15550198e-02f, -1.03764527e-01f, -1.91690192e-01f, -1.15430325e-01f, 9.40146744e-02f, -1.37322828e-01f, 1.26555890e-01f, 8.82777944e-02f, 6.85632005e-02f, 6.83780164e-02f, 4.13929783e-02f, 1.73082948e-01f, 3.57403345e-02f, -3.45647745e-02f, -1.98435068e-01f, 8.59088004e-02f, -1.00795582e-01f, 1.64259430e-02f, -2.16999397e-01f, 4.93688472e-02f, -5.68764992e-02f, 6.99200258e-02f, -7.68523961e-02f, -9.05884653e-02f, 8.20468962e-02f, -2.15855166e-01f, 7.36747831e-02f, 7.20853657e-02f, 6.10101894e-02f, -1.82035059e-01f, -5.15815578e-02f, 8.57006684e-02f, -2.62056023e-01f, -1.38793096e-01f, -1.47229090e-01f, -1.50133613e-02f, -1.65685207e-01f, -1.32635489e-01f, -5.33894077e-02f, -1.04994625e-01f, 9.66523886e-02f, 1.03328004e-01f, -1.03695087e-01f, -2.42295340e-01f, 5.15147969e-02f, -2.72069752e-01f };

// batch_normalization_13_gamma shape: [48]
const float batch_normalization_13_gamma[] = { 1.07337785e+00f, 1.62127399e+00f, 1.30012715e+00f, 1.62200046e+00f, 1.35060835e+00f, 1.30589533e+00f, 1.16223216e+00f, 1.31770635e+00f, 1.20785499e+00f, 1.16224563e+00f, 1.14667702e+00f, 1.03767192e+00f, 1.00155044e+00f, 1.63879013e+00f, 1.25255418e+00f, 1.58258045e+00f, 1.23544645e+00f, 1.15053928e+00f, 1.43946826e+00f, 1.27512681e+00f, 1.29749811e+00f, 1.25242805e+00f, 1.38842261e+00f, 1.15681148e+00f, 1.46599650e+00f, 1.28349233e+00f, 1.03747499e+00f, 1.29105330e+00f, 1.04670334e+00f, 1.20385194e+00f, 1.11457086e+00f, 1.35345221e+00f, 1.67939067e+00f, 1.11241877e+00f, 1.39158630e+00f, 1.29749417e+00f, 1.32531786e+00f, 1.12117839e+00f, 1.28873968e+00f, 1.25772738e+00f, 1.65591276e+00f, 1.53270411e+00f, 1.09140491e+00f, 1.25503707e+00f, 1.25863147e+00f, 1.27853441e+00f, 1.21836221e+00f, 1.24815369e+00f };

// batch_normalization_13_beta shape: [48]
const float batch_normalization_13_beta[] = { 1.12468665e-02f, 4.18136477e-01f, 2.37144545e-01f, 4.05040890e-01f, 2.45767191e-01f, 2.76135266e-01f, -1.21781535e-01f, 2.60688275e-01f, -7.13578612e-02f, -1.02286384e-01f, -1.15428947e-01f, -1.03132829e-01f, -8.55282545e-02f, 2.83147454e-01f, 2.10541576e-01f, 4.72126156e-01f, 1.61234498e-01f, -1.06939241e-01f, 3.59854460e-01f, 2.15968192e-01f, 2.16827840e-01f, 2.07737669e-01f, 3.52688819e-01f, -1.19010001e-01f, 3.13289315e-01f, 1.85896888e-01f, -9.06204879e-02f, 2.09662437e-01f, -1.19126111e-01f, -1.12181209e-01f, -1.15324877e-01f, 2.27301940e-01f, 4.17813808e-01f, -9.67312157e-02f, 2.60548770e-01f, 2.34166741e-01f, 2.25459814e-01f, 4.53244708e-03f, 1.87266901e-01f, 2.05854729e-01f, 5.63884437e-01f, 4.72444504e-01f, -1.13725528e-01f, -8.87100995e-02f, 2.18314171e-01f, 2.06954286e-01f, -1.00867108e-01f, 1.85958400e-01f };

// batch_normalization_13_mean shape: [48]
const float batch_normalization_13_mean[] = { -2.25428306e-02f, 3.04524064e-01f, 1.57760888e-01f, 3.82693596e-02f, 9.47635770e-02f, 3.05591077e-01f, -2.25917473e-01f, -1.57802716e-01f, 3.57810706e-02f, -5.88590130e-02f, -1.86827242e-01f, 3.62393842e-03f, -9.26559493e-02f, -8.64441693e-02f, 4.25550848e-01f, 2.52027716e-02f, 1.13015428e-01f, -2.01056734e-01f, 3.30152214e-01f, -8.05129260e-02f, 7.96851292e-02f, -4.14989926e-02f, 1.35148689e-01f, -2.47146308e-01f, 2.85100430e-01f, -1.11745909e-01f, 2.63204724e-02f, -1.60575733e-01f, -5.00972606e-02f, -1.36951968e-01f, -2.06043646e-01f, -2.07592234e-01f, 2.06339031e-01f, -1.54846907e-03f, -6.90342113e-02f, 3.17068517e-01f, -1.49872631e-01f, -3.88109870e-02f, 1.18319646e-01f, -1.23935416e-01f, 1.16532326e-01f, 3.06098729e-01f, -3.69532742e-02f, -1.63913846e-01f, 3.01668823e-01f, 2.21825972e-01f, -1.21228479e-01f, 2.27694318e-01f };

// batch_normalization_13_var shape: [48]
const float batch_normalization_13_var[] = { 2.13730782e-01f, 1.92722604e-01f, 1.84833854e-01f, 1.94005877e-01f, 2.06316844e-01f, 2.34667093e-01f, 1.44011304e-01f, 1.29983798e-01f, 1.15414537e-01f, 1.21025249e-01f, 1.09121665e-01f, 7.18699470e-02f, 1.90839410e-01f, 1.10479131e-01f, 3.23381007e-01f, 2.88969606e-01f, 2.30269283e-01f, 1.40035510e-01f, 3.06264132e-01f, 2.37466186e-01f, 3.11519772e-01f, 3.58134121e-01f, 2.43477449e-01f, 1.07050136e-01f, 1.94275782e-01f, 1.74278781e-01f, 9.98364836e-02f, 1.64859265e-01f, 1.09792240e-01f, 1.08408153e-01f, 8.51793289e-02f, 2.52001286e-01f, 2.34770000e-01f, 1.09065831e-01f, 2.19017759e-01f, 2.92651772e-01f, 1.60183445e-01f, 2.05592766e-01f, 2.60948569e-01f, 1.84250817e-01f, 2.39157811e-01f, 2.14919731e-01f, 1.42017215e-01f, 1.08155593e-01f, 1.47218928e-01f, 1.84521914e-01f, 1.02737717e-01f, 2.35496268e-01f };

// dense_1_w shape: [48, 3]
const float dense_1_w[] = { -2.22559020e-01f, 1.57678008e-01f, 2.04376727e-01f, -3.03760916e-02f, 5.52735507e-01f, 8.71838853e-02f, -4.81016040e-01f, 3.78401637e-01f, -1.19261183e-01f, -2.57492423e-01f, 3.95504206e-01f, 4.17863950e-02f, -2.18223691e-01f, 5.10533988e-01f, -8.61783922e-02f, -2.88699299e-01f, 2.87452012e-01f, -4.85001653e-01f, 5.82775056e-01f, -4.27423626e-01f, -2.89185911e-01f, -6.30998537e-02f, 3.75224590e-01f, -4.65296954e-01f, 3.84980112e-01f, -2.39928782e-01f, -3.24734718e-01f, 5.52547395e-01f, -2.17648014e-01f, -1.73587576e-02f, 2.31879205e-01f, -3.70429516e-01f, -1.40242353e-01f, 3.30563724e-01f, -1.84882447e-01f, 1.67215526e-01f, 3.69239956e-01f, 1.47966640e-02f, 1.93115234e-01f, 2.35356435e-01f, -1.46825805e-01f, -5.09467602e-01f, -1.12520866e-01f, 5.04807353e-01f, -3.54028761e-01f, -5.94738759e-02f, 5.36440074e-01f, 8.50508884e-02f, -4.17660207e-01f, 4.57460701e-01f, -2.85844564e-01f, 1.71125069e-01f, -4.62549716e-01f, -2.71239787e-01f, -4.31572832e-02f, 5.27533650e-01f, 6.96528032e-02f, -2.64195144e-01f, 3.03787768e-01f, -4.94828105e-01f, -3.60662490e-01f, 5.05739264e-02f, -2.43357658e-01f, -3.81919920e-01f, 3.08867455e-01f, -5.31869709e-01f, -6.27678782e-02f, 3.17031652e-01f, -4.21182364e-01f, 3.99709404e-01f, -4.29910332e-01f, -2.48447031e-01f, -2.91229576e-01f, 4.03244197e-01f, 4.14238647e-02f, -5.47919691e-01f, 1.86507598e-01f, -3.45083743e-01f, 3.19825262e-01f, -2.07385808e-01f, 1.39222115e-01f, -1.70257047e-01f, 4.26426232e-01f, -3.73394012e-01f, 1.05786778e-01f, -4.54559445e-01f, -2.31658537e-02f, 4.05484468e-01f, -3.77609998e-01f, -1.96193278e-01f, 5.86916506e-01f, -3.15455377e-01f, -4.60788459e-02f, -2.21111193e-01f, 2.68872142e-01f, -3.71090233e-01f, -3.18811446e-01f, 3.44985068e-01f, 5.94115059e-04f, 5.01910031e-01f, -8.80964622e-02f, 3.25488672e-02f, -1.73749104e-01f, 4.62097466e-01f, 1.69973165e-01f, -3.22712988e-01f, 3.74002188e-01f, -4.66234647e-02f, -4.07210320e-01f, 2.93298393e-01f, -3.33440781e-01f, -2.31161281e-01f, 1.43931627e-01f, 7.84920678e-02f, -4.23800826e-01f, 4.80578780e-01f, 1.26136124e-01f, -1.98124468e-01f, 3.89352649e-01f, -4.87619370e-01f, 1.27644971e-01f, 5.09658813e-01f, -1.11911818e-01f, -7.56241102e-03f, 4.95666087e-01f, -3.14990953e-02f, 4.68524069e-01f, -3.62756848e-01f, 9.72230956e-02f, 6.13713682e-01f, -1.08597003e-01f, -1.80269092e-01f, -1.19017540e-02f, 4.54181463e-01f, -3.10123175e-01f, -1.57510087e-01f, 5.39902925e-01f, -1.88192770e-01f, 4.08162594e-01f, -2.59523213e-01f, -2.24335477e-01f, -4.36496943e-01f, 3.01040351e-01f, -4.71138000e-01f };

// dense_1_b shape: [3]
const float dense_1_b[] = { -1.00031652e-01f, 1.28862083e-01f, -1.58718333e-01f };

#endif
